// Auto-generated by export_weights.py — do not edit.
#pragma once

#define TOTAL_WEIGHT_FLOATS 5640

#define HEAD_BIAS_OFFSET 0
#define HEAD_BIAS_SIZE   12   // shape (1, 12, 1, 1)
#define HEAD_BLOCK1_0_WEIGHT_OFFSET 12
#define HEAD_BLOCK1_0_WEIGHT_SIZE   1200   // shape (12, 4, 5, 5)
#define HEAD_BLOCK1_0_BIAS_OFFSET 1212
#define HEAD_BLOCK1_0_BIAS_SIZE   12   // shape (12,)
#define HEAD_BLOCK1_1_PRELU_OFFSET 1224
#define HEAD_BLOCK1_1_PRELU_SIZE   12   // shape (12,)
#define HEAD_BLOCK1_2_WEIGHT_OFFSET 1236
#define HEAD_BLOCK1_2_WEIGHT_SIZE   1296   // shape (12, 12, 3, 3)
#define HEAD_BLOCK1_2_BIAS_OFFSET 2532
#define HEAD_BLOCK1_2_BIAS_SIZE   12   // shape (12,)
#define HEAD_BLOCK2_WEIGHT_OFFSET 2544
#define HEAD_BLOCK2_WEIGHT_SIZE   1200   // shape (12, 4, 5, 5)
#define HEAD_BLOCK2_BIAS_OFFSET 3744
#define HEAD_BLOCK2_BIAS_SIZE   12   // shape (12,)
#define BODY_BIAS_OFFSET 3756
#define BODY_BIAS_SIZE   12   // shape (1, 12, 1, 1)
#define BODY_BLOCK1_WEIGHT_OFFSET 3768
#define BODY_BLOCK1_WEIGHT_SIZE   1296   // shape (12, 12, 3, 3)
#define BODY_BLOCK1_BIAS_OFFSET 5064
#define BODY_BLOCK1_BIAS_SIZE   12   // shape (12,)
#define BODY_BLOCK2_WEIGHT_OFFSET 5076
#define BODY_BLOCK2_WEIGHT_SIZE   144   // shape (12, 12, 1, 1)
#define BODY_BLOCK2_BIAS_OFFSET 5220
#define BODY_BLOCK2_BIAS_SIZE   12   // shape (12,)
#define ATT_1_WEIGHT_OFFSET 5232
#define ATT_1_WEIGHT_SIZE   144   // shape (12, 12, 1, 1)
#define ATT_1_BIAS_OFFSET 5376
#define ATT_1_BIAS_SIZE   12   // shape (12,)
#define ATT_2_PRELU_OFFSET 5388
#define ATT_2_PRELU_SIZE   12   // shape (12,)
#define ATT_3_WEIGHT_OFFSET 5400
#define ATT_3_WEIGHT_SIZE   144   // shape (12, 12, 1, 1)
#define ATT_3_BIAS_OFFSET 5544
#define ATT_3_BIAS_SIZE   12   // shape (12,)
#define TAIL_1_WEIGHT_OFFSET 5556
#define TAIL_1_WEIGHT_SIZE   81   // shape (3, 3, 3, 3)
#define TAIL_1_BIAS_OFFSET 5637
#define TAIL_1_BIAS_SIZE   3   // shape (3,)

// All weights, concatenated in manifest order (float32).
static const float MODEL_WEIGHTS[TOTAL_WEIGHT_FLOATS] = {
  -7.119926214e-01f, 7.299567461e-01f, -1.947020888e+00f, 1.341974735e+00f, 6.657279730e-01f, 1.048096895e+00f, 1.266998529e+00f, -5.002034903e-01f,
  -6.032745838e-01f, -5.746697783e-01f, 3.221945524e+00f, 8.238350749e-01f, -3.671311960e-02f, -8.549807221e-02f, -1.803499460e-01f, -2.968662232e-02f,
  1.877138913e-01f, -4.850238562e-01f, -1.317905307e+00f, -8.647601604e-01f, -1.323604345e+00f, -1.936334372e-01f, 1.658971012e-01f, -1.440290928e+00f,
  -4.920858860e+00f, 2.336381435e+00f, 1.318421364e-01f, -5.992903560e-02f, -4.855559021e-02f, 5.954651833e-01f, -3.433638513e-01f, -8.711473644e-02f,
  3.174474835e-01f, 4.821963906e-01f, -2.103767693e-01f, -9.222438931e-02f, 1.750911176e-01f, 2.045805007e-01f, 5.621686578e-04f, 1.387515664e-02f,
  1.492536068e-01f, 1.346189678e-01f, 1.171255857e-01f, 5.771594048e-01f, -9.400471449e-01f, -6.232772470e-01f, -4.982776046e-01f, -2.574047744e-01f,
  -7.790506482e-01f, 9.688344955e+00f, -1.039817095e+00f, -2.481490374e-02f, -2.479996532e-01f, 5.610132217e-01f, 6.601086855e-01f, -1.613527238e-01f,
  -2.361489236e-01f, 3.016296029e-01f, 8.372223377e-02f, 2.355469763e-01f, 6.250043213e-02f, 2.269641757e-01f, -8.754745126e-02f, -1.541957259e-02f,
  -4.007908702e-01f, -1.800840646e-01f, -9.992183745e-02f, 1.179971993e-01f, -8.197414279e-01f, -2.286224961e-01f, 5.192080736e-01f, -1.870686114e-01f,
  -6.962897629e-02f, -4.633851349e-01f, -4.303432465e+00f, 1.054853320e+00f, -2.619656026e-01f, -1.051917672e-01f, -2.460317612e-01f, -1.127557993e+00f,
  -2.266575098e-01f, 7.947953045e-02f, 4.371553659e-02f, 1.136610955e-01f, -4.522594810e-01f, -1.120634377e-02f, 2.722560465e-01f, 3.243094683e-01f,
  2.854988873e-01f, 1.154389828e-01f, 5.347198248e-02f, -5.478500575e-02f, 6.699545383e-01f, 1.974760294e+00f, 1.773609400e+00f, 1.162439585e+00f,
  1.365084648e-01f, 3.235970438e-02f, 4.933328032e-01f, -8.221473694e+00f, 1.521605968e+00f, -1.651526988e-01f, 1.645215154e-01f, -5.633717775e-01f,
  -1.077274680e-01f, 7.616154104e-02f, 1.730818152e-01f, 3.342241049e-01f, -3.044109344e-01f, -2.270427048e-01f, -2.135891169e-01f, 3.026272655e-01f,
  1.025869608e+00f, 1.635126829e+00f, 1.377388984e-01f, -1.127537251e+00f, -1.725557923e+00f, -1.408220887e+00f, -3.200739145e+00f, -7.698007107e+00f,
  -2.817254543e+00f, -2.265332937e+00f, -1.049214602e-02f, -1.055297136e+00f, -3.051290512e+01f, -1.738200784e+00f, -1.471501827e+00f, 1.307181269e-02f,
  -1.954579949e+00f, 1.899104476e+00f, -1.314714551e-01f, -1.144149065e+00f, -2.096812725e+00f, -2.609943867e+00f, -1.795010090e+00f, -2.259951591e+00f,
  -3.053779125e+00f, 2.831357718e-01f, 1.729905605e+00f, 3.096674681e-01f, 4.768308699e-01f, 1.595100164e+00f, -1.817241311e-03f, 4.653199196e+00f,
  1.033705044e+01f, 1.780156851e+00f, 2.106097698e+00f, 1.962698340e+00f, 2.524660110e+00f, -5.809391022e+01f, 9.665300846e-01f, 1.484192610e+00f,
  6.470488906e-01f, 6.329402924e+00f, 9.011878967e-01f, 3.534590721e+00f, 2.458962679e+00f, -2.234392643e+00f, 6.244576573e-01f, -6.767163873e-01f,
  2.628785372e-02f, 2.554022372e-01f, 5.549555421e-01f, 2.073034763e+00f, 5.063578486e-02f, 2.292915881e-01f, -3.995358944e-03f, 6.486706138e-01f,
  3.753749609e+00f, -1.629163980e+00f, 3.489610434e+00f, -1.762773037e+00f, 1.913419127e+00f, 8.375680447e-02f, -6.826408386e+00f, -3.114615679e-01f,
  3.157383204e-01f, 1.830909491e+00f, -4.213086963e-01f, -1.137407064e+00f, 1.011280179e+00f, -5.745756626e-01f, 1.827186346e+00f, 1.761933684e+00f,
  2.714773893e+00f, 2.191960335e+00f, 1.589030981e+00f, -1.743513346e+00f, -2.984457493e+00f, -1.034138441e+00f, -1.381087750e-01f, 7.564887404e-03f,
  -2.104125500e+00f, -3.017508984e+00f, -4.704445362e+00f, 1.608490944e+00f, 2.750849128e-01f, -2.020189047e+00f, -7.316270828e+00f, -5.554370117e+01f,
  6.357642412e-01f, 1.842546225e+00f, -2.978808165e+00f, -2.351930618e+00f, -5.198273182e+00f, -3.029552698e-01f, -9.717623144e-02f, -3.429589510e+00f,
  1.151167393e+00f, -1.324926913e-01f, -2.694066465e-01f, 5.122663379e-01f, -7.844868302e-02f, 3.867039084e-01f, -4.398262501e-01f, -5.302704573e-01f,
  -1.404470682e+00f, -1.017571211e+00f, -2.213799715e+00f, -1.684387207e+00f, -1.162110806e+00f, -1.402457714e+00f, 1.014313340e+00f, 3.017445087e+00f,
  1.388789272e+01f, 7.916934013e+00f, 2.685431838e-01f, -6.779426932e-01f, -2.381706238e-02f, -4.943830371e-01f, -3.255949020e-01f, -1.504388928e+00f,
  -4.119765759e-01f, 4.593248069e-01f, -1.370056510e+00f, -6.700344086e-01f, -1.398009539e+00f, 1.944218278e-01f, 2.962582111e-01f, 7.602400184e-01f,
  7.757518291e-01f, 2.091926038e-01f, 3.989181668e-02f, 2.844898224e+00f, 3.663561821e+00f, -6.806462407e-01f, -1.288204491e-01f, -9.224465489e-02f,
  2.317943573e-01f, -5.375503540e+01f, 3.042939186e+00f, 1.433032632e+00f, -3.019047379e-01f, 3.053884745e+00f, 1.593945622e+00f, -3.335214257e-01f,
  -1.549170166e-01f, 1.608413905e-01f, 1.076054573e+00f, 1.340021253e+00f, 7.755888700e-01f, 6.366347671e-01f, -4.367692769e-02f, 3.882288039e-01f,
  -1.257193327e+00f, -5.835474730e-01f, -6.490294337e-01f, 1.094963789e+00f, -1.541810513e+00f, -5.182272196e-01f, 2.484317541e+00f, -1.398604631e+00f,
  5.632721782e-01f, -2.091882527e-01f, -1.991429090e+00f, -1.795255423e+00f, -5.599677563e-01f, 2.226997614e-01f, 6.491736174e-01f, -1.940357685e+00f,
  1.317838311e+00f, -9.894431233e-01f, 2.578954697e-01f, 7.071101069e-01f, -5.557709932e-01f, 2.062527239e-01f, 6.318408251e-01f, 3.892951608e-01f,
  -7.344120741e-02f, 8.683950305e-01f, 4.644653797e-01f, 2.279452085e-01f, 8.852446079e-01f, 3.075197697e+00f, 6.831240177e+00f, 1.519525290e+00f,
  4.853116870e-01f, -4.885566980e-02f, -3.497101068e+00f, 8.802682877e+00f, -4.748050690e+00f, 6.159841418e-01f, -8.099412918e-01f, -1.388813853e+00f,
  1.911896586e+00f, 4.990423322e-01f, 1.499407440e-01f, -1.283803225e+00f, -5.530380011e-01f, -1.044230461e+00f, -7.522771358e-01f, 7.206273079e-01f,
  -1.268854439e-01f, -6.831568480e-01f, -1.831541061e-01f, 3.849565685e-01f, 5.153607130e-01f, -1.593422651e+00f, -1.526515365e+00f, -1.384136796e+00f,
  -1.297081709e+00f, -9.722497314e-02f, -1.404612303e+00f, -4.636018276e+00f, -1.455880928e+01f, 1.119898796e+00f, 9.210718274e-01f, -3.485514522e-01f,
  -1.373042941e+00f, -1.244043946e+00f, 1.724712104e-01f, 1.378662586e-01f, 4.524157047e-01f, 3.194269538e-01f, -6.426411122e-02f, 8.819344044e-01f,
  5.652457476e-01f, 5.604407191e-01f, -6.657364964e-02f, 3.933674693e-01f, 9.378160238e-01f, 1.686006784e-01f, -1.671228409e-01f, 9.765747786e-01f,
  3.117606938e-01f, -1.395455718e+00f, -7.673410773e-01f, 3.782240748e-01f, 1.971933126e+00f, 2.984869480e+00f, -4.597794116e-01f, 1.776186824e+00f,
  -3.147048950e-01f, 1.027207613e+00f, 6.636971235e-02f, -1.689635396e+00f, -5.120187998e-01f, 5.343064070e-01f, 2.799221277e-01f, 3.581275344e-01f,
  4.633099213e-02f, 5.414489508e-01f, 1.101089835e+00f, 2.613758743e-01f, -2.627489865e-01f, -3.240280151e-01f, -6.089170575e-01f, -2.186371535e-01f,
  -1.478796244e+00f, -4.490657449e-01f, -5.764704943e-02f, -7.670971751e-02f, 1.749234200e-01f, 4.780120850e-01f, -7.141409397e+00f, 8.452652097e-01f,
  -1.133740544e+00f, -3.271452785e-01f, -9.874771237e-01f, -1.276703596e+00f, 5.829339027e-01f, -4.246699810e-01f, 1.688866377e+00f, 4.799122810e-01f,
  -1.270942569e+00f, 2.208937407e-01f, -7.349018753e-02f, 9.358911514e-01f, 6.507600546e-01f, 2.837255001e-01f, -5.977039784e-02f, -1.101947308e+00f,
  1.023107052e+00f, 3.002720356e+00f, 9.427766204e-01f, -8.172720671e-02f, 8.071650267e-01f, 7.968956232e-02f, 2.537998438e+00f, -1.469909477e+01f,
  -1.441945553e+00f, 1.283282042e-02f, -3.684692979e-01f, -5.717531443e-01f, -1.706775725e-01f, 2.197972685e-01f, -4.269649386e-01f, -3.193501830e-01f,
  -7.074649334e-01f, -2.657808959e-01f, -4.543685913e-02f, -1.843616366e-03f, 2.779595256e-01f, 3.243841827e-01f, 1.355948895e-01f, 7.491850108e-02f,
  1.484725177e-01f, -5.062932968e-01f, -9.695669413e-01f, -1.492819071e+00f, -1.107231975e+00f, -3.134242594e-01f, -3.099204227e-02f, 3.774219513e+00f,
  -6.829759598e+00f, -1.232544422e+00f, -3.630748391e-01f, 3.596787155e-02f, 3.751951084e-02f, -1.991584778e+00f, -5.269491673e-01f, -1.408095956e-01f,
  -2.027249634e-01f, -4.217804968e-01f, -3.596503735e-01f, -4.324437380e-01f, -5.648167133e-01f, 7.991443574e-02f, 4.466148615e-01f, 1.641374528e-01f,
  2.344478965e-01f, 3.443979323e-01f, -3.682067990e-01f, 7.021247149e-01f, -8.483147621e-01f, -2.893726230e-01f, -5.679352582e-02f, 2.128748894e-01f,
  -1.325061202e+00f, 1.006455183e+00f, 4.307949543e-01f, -1.898491383e-02f, -7.196366787e-02f, 4.708905816e-01f, 2.428127229e-01f, 6.430873275e-02f,
  3.429554403e-03f, -4.079839587e-01f, -4.176112264e-02f, 1.255484670e-02f, -1.282167584e-01f, -1.752508283e-01f, 1.629195958e-01f, 3.521674871e-01f,
  1.724632084e-01f, -2.275996655e-02f, 2.943515778e-03f, 1.118443534e-02f, -8.852194548e-01f, -3.234719858e-02f, 2.713514864e-01f, -2.547756732e-01f,
  2.438548058e-01f, -8.000735044e-01f, -3.985642195e+00f, -2.918446541e+00f, -5.613500625e-02f, 5.595226288e-01f, 7.546123117e-02f, 6.908501983e-01f,
  2.572788298e-01f, 8.831686527e-02f, 5.512217879e-01f, 3.567281067e-01f, 4.133987427e-01f, 4.512358308e-01f, 1.355910003e-01f, -2.968671322e-01f,
  -2.555811703e-01f, -3.409437835e-03f, 2.295741439e-02f, -1.450591832e-01f, 3.895846754e-02f, 1.218333602e+00f, 3.058593035e+00f, 4.800374806e-01f,
  2.148169577e-01f, -3.123553395e-01f, -3.202945709e+00f, -9.048771858e-01f, 8.315414190e-02f, 9.635138512e-02f, -2.561676800e-01f, -6.451199651e-01f,
  1.464218020e+00f, 3.503836989e-01f, 1.288738847e-01f, 1.655339599e-01f, 4.319323897e-01f, 4.917410612e-01f, 4.786267132e-02f, 2.233080864e-01f,
  2.249260992e-01f, -7.349468768e-02f, -2.531893253e-01f, -3.909801245e-01f, 3.409580290e-01f, 1.999012232e-01f, -1.068714142e+00f, -2.113878727e+00f,
  -8.889631629e-01f, 2.114579976e-01f, -1.455932856e-03f, -2.768658161e+00f, -1.309156036e+01f, 4.677213192e+00f, 5.346171558e-02f, 2.546451390e-01f,
  -8.772890568e-01f, -2.588112354e+00f, -8.864259720e-01f, 1.163626015e-01f, 5.037525892e-01f, 1.683189273e-01f, 3.175302148e-01f, 2.544785738e-01f,
  8.660006523e-01f, -8.276529610e-02f, 8.302223682e-02f, -4.005741179e-01f, -1.542685032e-01f, 3.808457851e-01f, 2.212462127e-01f, 1.051132321e+00f,
  1.690614104e+00f, 1.675811559e-01f, 3.452498913e-01f, -3.493028879e-01f, -4.873825312e-01f, -9.746870995e-01f, 3.377871215e-02f, -3.176710606e-01f,
  -2.386725992e-01f, 5.183496475e-01f, -4.306592941e+00f, 2.675919533e-01f, 1.592071652e-01f, -1.891761571e-01f, 3.227591515e-05f, -1.493899822e-01f,
  4.317295551e-01f, 6.687693000e-01f, -1.688251644e-01f, 3.787473589e-02f, 2.602374554e-01f, 1.854004115e-01f, -2.852855623e-02f, -3.829302192e-01f,
  1.689076424e-03f, -6.364076138e-01f, 7.529291511e-01f, 2.744112164e-02f, 2.482657731e-01f, 2.617174625e+00f, 3.203665257e+00f, 1.152793288e+00f,
  6.158757210e-01f, 1.488491297e-01f, 5.414059162e-01f, 9.811482430e-01f, 3.785890937e-01f, 1.532173455e-01f, 1.829011440e-01f, 3.938183188e-01f,
  1.131426811e+00f, 1.026268005e+00f, 6.086983681e-01f, -4.871615171e-01f, -1.520576030e-01f, -2.226021886e-01f, -7.545192540e-02f, -4.335381687e-01f,
  -5.381615758e-01f, -2.787344456e-01f, -4.356847286e+00f, -5.312085152e-01f, -5.617681742e-01f, -3.745134771e-01f, -3.239427209e-01f, 9.496085167e+00f,
  -1.574857593e+00f, -1.163358539e-01f, -7.249668837e-01f, -1.172115564e+00f, -3.032391071e+00f, -4.388620555e-01f, -5.910840631e-01f, -5.653055310e-01f,
  -2.977397293e-03f, 3.646773100e-02f, -8.005432785e-02f, -3.240155578e-01f, 5.345598236e-02f, -4.143698514e-01f, -4.645323157e-01f, -1.093382359e+00f,
  -2.901867330e-01f, -1.574491978e+00f, -2.694508314e+00f, -7.013998032e+00f, -2.992039919e+00f, -1.092076182e+00f, -1.179774642e+00f, -1.808855176e+00f,
  -2.997009468e+01f, -3.558331728e+00f, -5.781941414e-01f, 5.478127003e-01f, 3.062909842e-02f, 2.270784378e+00f, 1.650528789e+00f, 3.246977925e-01f,
  -5.345811844e-01f, -1.008224487e+00f, -1.233062267e+00f, -8.134685755e-01f, -1.939719200e+00f, -2.915899158e-01f, -1.517009586e-01f, -2.666669190e-01f,
  -4.691078067e-01f, -1.206746474e-01f, 3.488881588e-01f, 2.929190993e-01f, -6.661103964e-01f, -4.053244591e-01f, 1.034568772e-01f, 4.640524387e-01f,
  1.563456297e+00f, -5.739332199e+00f, 1.603252888e-01f, -8.336341381e-02f, 2.730999887e-01f, 2.960984230e+00f, 4.249254704e+00f, 6.092973948e-01f,
  1.411250949e+00f, -1.192159891e+00f, -8.215636015e-01f, -2.176138461e-01f, -1.020982146e+00f, -1.422020674e+00f, 1.110128999e+00f, 7.086098194e-01f,
  1.679489017e-01f, -3.444278538e-01f, 3.128061891e-01f, 6.434857845e-01f, 8.788652420e-01f, -9.057372808e-01f, 3.695545793e-01f, -1.192144871e+00f,
  -4.250181913e-01f, -4.892621994e+00f, -2.583738518e+01f, -2.146243572e+00f, -7.084197998e-01f, 1.170678258e+00f, -2.067073107e+00f, -3.045615196e+00f,
  -1.140838623e+00f, -8.986301422e-01f, 5.517103672e-01f, -2.720904648e-01f, -1.216019154e+00f, 3.625859320e-01f, 3.757180274e-01f, 8.128513694e-01f,
  1.189927906e-01f, 5.347112566e-02f, 5.746879578e-01f, 8.131447434e-01f, 1.451805234e+00f, 1.621043682e+00f, 2.424939632e+00f, 2.048729420e+00f,
  4.487445354e-01f, -4.338783026e-01f, 1.176481009e+00f, -1.455754852e+01f, 7.824900746e-01f, 1.117915273e+00f, -1.949928999e-01f, -2.972994745e-01f,
  -1.747624516e+00f, 4.162102938e-03f, 8.063561916e-01f, -5.405781269e-01f, -3.566431403e-01f, 1.016382128e-01f, 8.993787766e-01f, 1.078532934e+00f,
  -4.498331547e-01f, -4.992225766e-02f, 2.510833442e-01f, 5.413774401e-02f, -1.091693401e+00f, -1.442312896e-01f, -2.864958525e+00f, -9.631708860e-01f,
  -8.297834396e-01f, 4.014605284e-02f, 2.543102205e-01f, -4.354570389e+00f, -8.203065395e-01f, 3.388054848e+00f, 1.197584271e-01f, -1.863081694e+00f,
  -1.686980009e+00f, -6.655915260e+00f, -2.790528297e+00f, -2.025558472e+00f, -1.389427781e+00f, -7.784477472e-01f, -9.825676680e-01f, -5.073029399e-01f,
  -1.262397528e+00f, -3.767406046e-01f, -2.652545273e-01f, 1.863915920e+00f, 5.857672691e-01f, -4.200425446e-01f, -5.857394934e-01f, -1.239233732e+00f,
  2.739988804e+00f, -1.178138375e+00f, 6.663931012e-01f, 3.946728408e-01f, -4.096474648e+00f, 1.452645874e+01f, -3.891226292e+00f, 6.304491758e-01f,
  9.879510403e-01f, 8.136298656e-01f, -5.871119499e+00f, -1.382556081e+00f, -6.292631626e-01f, 2.519322038e-01f, 1.072300315e+00f, 1.393766165e+00f,
  1.453306675e-01f, -2.693902254e-01f, 6.361562610e-01f, 1.881325841e-01f, 8.743190765e-01f, 1.260232627e-01f, 1.189357042e-02f, 9.219516516e-01f,
  -2.991348267e+00f, -5.255697966e-01f, -3.174379170e-01f, -6.213886142e-01f, 4.419317842e-01f, 5.070405960e+00f, 6.422897577e-01f, -8.650723696e-01f,
  2.467466146e-01f, 1.379791737e+00f, 4.427871704e+00f, 3.837459087e-01f, 2.304275513e+00f, 1.121502742e-01f, -1.146566153e+00f, -4.650035501e-01f,
  3.326175511e-01f, -1.822863370e-01f, -3.923023343e-01f, 5.808621645e-01f, 1.366171390e-01f, 1.738301039e+00f, 8.345140219e-01f, 1.163535118e+00f,
  7.652925253e-01f, 2.892659187e+00f, 1.297336221e+00f, -3.263466835e+00f, 3.994514644e-01f, 1.456186295e+00f, -1.332062244e+00f, -1.629070663e+01f,
  -1.112613320e+00f, 1.219753981e+00f, -1.641044021e-01f, -1.474648356e+00f, -2.001057625e+00f, 2.624031901e-01f, 3.210374117e-01f, -7.998983860e-01f,
  -1.677377149e-02f, 5.833590031e-01f, 1.161021292e-01f, 5.950539112e-01f, 5.708299875e-01f, 7.166984677e-01f, 1.677306741e-01f, -5.819448233e-01f,
  -7.335435748e-01f, -1.072583273e-01f, -1.971576929e+00f, -2.861202717e+00f, -2.698090315e+00f, -6.285527945e-01f, 1.175665855e+00f, 1.670102477e-01f,
  3.935754299e+00f, 3.009739518e-02f, -5.226849020e-02f, -8.522326946e-01f, -3.223140240e-01f, 6.829639673e-01f, -1.621949315e+00f, -1.422286630e+00f,
  -5.674622059e-01f, -9.519872069e-02f, -6.133103967e-01f, -6.166691780e-01f, -9.467009306e-01f, 6.231527030e-02f, 1.415966302e-01f, 2.275386304e-01f,
  1.997430027e-01f, 3.646815121e-01f, -2.179364860e-01f, 1.779502034e+00f, 1.303569555e+00f, 3.340721726e-01f, 3.828884363e-01f, -9.601777792e-02f,
  -1.489076376e+00f, -2.015438080e+00f, -6.405695081e-01f, 2.919034660e-01f, -2.617163062e-01f, 1.283373833e+00f, 3.142649651e+00f, 6.498496532e-01f,
  -3.097970486e-01f, -2.865044773e-01f, 5.454307795e-01f, 8.439670801e-01f, 7.115773559e-01f, 3.285887837e-01f, -4.295612872e-01f, 5.540402606e-02f,
  -1.907936186e-01f, -2.833300829e-01f, -4.325103760e-02f, 6.385798454e-01f, -1.505109668e-01f, -3.036375642e-01f, 9.442288876e-01f, -9.020946026e-01f,
  5.861152411e-01f, -2.513834715e+00f, 2.688293934e+00f, 2.163592577e+00f, 4.124101996e-01f, 3.648312092e-01f, 3.392044306e-01f, 2.368089259e-01f,
  1.857879013e-01f, -2.803265750e-01f, -1.814785302e-01f, 4.337287545e-01f, 9.395998716e-01f, 6.938253045e-01f, 6.747429371e-01f, -4.124117494e-01f,
  -4.750433862e-01f, 4.626019895e-01f, 3.905555308e-01f, 5.465096831e-01f, -7.365763187e-02f, 7.891545296e-01f, 3.993908405e+00f, 2.115438461e+00f,
  9.837967157e-02f, -2.035862654e-01f, -3.527616024e+00f, -5.654787064e+01f, 9.594448805e-01f, 5.604966879e-01f, -6.159782410e-01f, -1.955365181e+00f,
  2.984082699e-02f, 2.713639140e-01f, -5.269810557e-02f, -5.205399394e-01f, 1.654446721e-01f, 8.716348559e-02f, 9.991019964e-03f, 5.467601418e-01f,
  -5.769330263e-01f, -9.870625287e-02f, 9.462078810e-01f, 4.364588261e-01f, -1.744330227e-01f, -1.943758845e+00f, -1.435510874e+00f, -7.253032327e-01f,
  -4.235382974e-01f, 5.154829025e-01f, -9.207450151e-01f, -6.151665211e+00f, -1.978374004e+00f, -2.550432682e+00f, 6.132313013e-01f, -1.855472565e+00f,
  -6.601461768e-02f, 2.327289104e+00f, -7.618751526e-01f, -1.593309999e+00f, -1.890166283e+00f, -1.336156845e+00f, -1.565043688e+00f, -1.832749486e+00f,
  -2.935999870e+00f, 4.034879208e-01f, 3.142386973e-01f, 1.411954403e+00f, 8.712065220e-01f, -2.268868983e-01f, -1.357152313e-01f, 1.526396275e+00f,
  5.119644403e-01f, 1.874905109e+00f, 3.127579093e-01f, 5.967717767e-01f, 3.599275112e+00f, 7.126494884e+00f, -1.799814343e+00f, 1.491522908e+00f,
  -4.087085426e-01f, 5.048093200e-01f, 4.634625912e+00f, 1.421636343e+00f, -8.197743893e-01f, -1.172251105e-01f, -3.343151510e-01f, 1.488601685e+00f,
  -2.713828683e-01f, -1.407602310e+00f, 2.358094901e-01f, 2.731384635e-01f, -1.545738578e+00f, -1.961934328e+00f, -9.278343916e-01f, 7.262257338e-01f,
  1.456600308e+00f, 1.999452114e+00f, -6.842558384e-01f, -1.094498396e+00f, 2.415348291e-01f, 4.105100155e+00f, -8.603396416e+00f, -7.721358538e-01f,
  -1.267034054e+00f, 1.931634545e+00f, 1.983671665e+00f, 1.399538159e+00f, 1.149877429e+00f, -8.929064870e-02f, 2.714099884e-01f, 5.614856482e-01f,
  -6.733208299e-01f, -3.747411370e-01f, 4.076555371e-01f, 5.552597046e-01f, -1.079909205e+00f, -3.027026653e-01f, -5.864038318e-02f, 8.024883270e-01f,
  1.443599582e+00f, 9.267075062e-01f, 5.316239595e-01f, 4.171886742e-01f, 1.716225505e+00f, -1.325079799e-02f, -2.957789898e+00f, -9.847644043e+01f,
  2.069376945e+00f, 1.012159944e+00f, 1.068023682e+00f, -8.369847536e-01f, -1.726609468e+00f, -3.692996800e-01f, 1.206925869e+00f, 2.819444180e+00f,
  6.962141991e-01f, 1.338442683e+00f, 5.829519629e-01f, 2.618278742e+00f, -9.608563036e-02f, 5.437258631e-02f, -1.123992167e-02f, 3.616074920e-01f,
  2.867033482e-01f, 5.088005662e-01f, -1.859865427e+00f, -3.421446800e+00f, -1.484242320e+00f, -4.282896966e-02f, 3.630425930e-01f, -1.266614556e+00f,
  6.822207928e+00f, 4.790331364e+00f, -3.433004022e-01f, 3.189100325e-01f, -3.969880342e-01f, 1.711972952e+00f, -2.263003886e-01f, 2.401259243e-01f,
  3.131039143e-01f, 4.287695885e-01f, 3.803573847e-01f, -1.369070709e-01f, 7.161969543e-01f, 3.401158750e-01f, -5.128715560e-02f, -2.659056783e-01f,
  -9.154392779e-02f, 2.441411465e-01f, 8.859245479e-02f, 1.325268984e+00f, 1.366014957e+00f, -6.538358927e-01f, -6.038058996e-01f, -8.634643257e-02f,
  -8.561140895e-01f, -9.643078804e+00f, 9.344853461e-03f, -7.993479967e-01f, 2.840396762e-01f, 2.424392462e+00f, 6.427299976e-01f, 2.418634593e-01f,
  -1.546402276e-01f, 6.453819871e-01f, 7.888184488e-02f, -5.320837498e-01f, -3.281143904e-01f, 1.991521418e-01f, -4.021501541e-01f, -2.581820488e-01f,
  1.138965189e-01f, 4.907969832e-01f, 5.356553793e-01f, -1.214477718e-01f, -1.074015498e-01f, 9.100618958e-01f, 2.084047794e+00f, 9.125347137e-01f,
  -4.939471483e-01f, 9.467859864e-01f, -2.215066910e+01f, 4.982012510e-01f, 1.284335852e-01f, -9.179896116e-01f, 7.027695179e-01f, 2.046632767e-01f,
  5.969659686e-01f, 6.985439062e-01f, -5.192633867e-01f, -4.739723802e-01f, -6.295016408e-01f, -9.080674648e-01f, -3.071709275e-01f, 1.432658881e-01f,
  1.305569857e-01f, -2.640645504e-01f, -1.917729974e-01f, 1.448644698e-01f, 3.367984667e-02f, 1.632068157e+00f, 2.517229557e+00f, 8.762649298e-01f,
  -2.475616634e-01f, 2.427135706e-01f, -4.140472412e-01f, 2.841205835e+00f, -2.502978802e+00f, -7.737335563e-01f, 6.115891933e-01f, -8.986531496e-01f,
  -2.005788326e+00f, 8.801824600e-02f, 2.050963938e-01f, 4.709123671e-01f, -2.619751990e-01f, -5.393500328e-01f, -4.787966311e-01f, -3.475652635e-01f,
  8.248849213e-02f, -7.871155441e-02f, -2.819633484e-01f, -3.195282221e-01f, 6.816684008e-01f, 2.250914127e-01f, 1.293067038e-01f, 2.086014748e+00f,
  3.993131518e-01f, 5.789277554e-01f, -4.180991948e-01f, -1.294345260e+00f, -1.525248146e+01f, 9.084761143e-03f, 1.285932660e-01f, 5.891692042e-01f,
  9.327501059e-01f, -2.164413333e-01f, -3.198108375e-01f, 8.198399544e-01f, 3.423279524e-01f, 1.151367351e-01f, 1.499219239e-01f, 1.547745764e-01f,
  4.248718321e-01f, -5.325678587e-01f, 1.892177761e-02f, -4.659632444e-01f, -4.980543256e-01f, -1.652463824e-01f, 3.871047795e-01f, 9.598503113e-01f,
  3.887277842e+00f, 6.094756722e-01f, 2.820544541e-01f, -1.020329118e+00f, 8.371298313e-01f, 7.426182270e+00f, -2.640606761e-01f, -9.255107641e-01f,
  -5.729593635e-01f, -1.770939827e-01f, 1.420069814e+00f, 1.863487065e-01f, 4.135554433e-01f, -8.486266136e-01f, -6.183654070e-01f, -1.238297001e-01f,
  -1.741624475e-01f, -2.447637916e-01f, -4.948457778e-01f, -3.162633181e-01f, -7.282065749e-01f, -6.124496460e-01f, -4.813932180e-01f, -4.637425244e-01f,
  -2.795394063e-01f, 1.159488708e-01f, -6.017817557e-02f, -5.930364132e-01f, -4.582194388e-01f, 1.817205429e+00f, 5.425135136e+00f, 8.011575937e-01f,
  2.554072142e-01f, 6.357249022e-01f, 9.461666346e-01f, 4.223585725e-01f, 3.163524866e-01f, -2.666062713e-01f, -5.053915381e-01f, -1.857205778e-01f,
  2.068186253e-01f, 3.633177876e-01f, 2.164810449e-01f, -1.062873751e-01f, 5.980393291e-02f, -4.701901972e-01f, -4.497407377e-02f, 3.177457303e-02f,
  1.225688159e-01f, 5.206567049e-01f, -4.505353928e+00f, -1.005396247e+00f, -4.205456376e-01f, -4.227580726e-01f, 5.202642679e-01f, -1.959671402e+01f,
  8.725256920e-01f, 5.202277005e-02f, -5.427950621e-02f, -5.678023100e-01f, -1.017046213e+00f, -4.182588458e-01f, -5.300881341e-02f, -5.243037641e-02f,
  4.067450017e-02f, 2.132500410e-01f, 1.918154359e-01f, 3.489366472e-01f, -1.655363798e+00f, 1.277312660e+01f, 4.091049194e+00f, 7.543717384e+00f,
  5.081208229e+00f, -4.751416206e+00f, 1.276583767e+01f, 1.599845290e+00f, 7.104897976e+00f, 8.761902809e+00f, -5.990842581e-01f, 3.877505541e+00f,
  -1.293409150e-02f, 8.066906012e-04f, -1.120437519e-03f, -7.581535610e-04f, 2.829104103e-02f, -7.314585894e-02f, 1.402194332e-02f, -1.610662905e-03f,
  1.487398800e-02f, -2.294491045e-03f, 6.488211453e-02f, 2.786611393e-02f, -1.316446811e-03f, 1.250220239e-01f, -1.370999962e-02f, -4.869664460e-02f,
  1.252228767e-02f, 2.401543036e-02f, 5.160515010e-02f, 2.739704251e-01f, -3.952208906e-02f, -5.323679000e-02f, 7.729151249e-01f, -7.159484923e-02f,
  -3.378042579e-02f, -1.857299060e-01f, 2.136123776e-01f, 7.592751831e-02f, 3.029626310e-01f, 9.433892369e-02f, -1.878151745e-01f, -3.882702440e-02f,
  1.311860383e-01f, 2.664560080e-01f, -1.241108030e-01f, 1.134016365e-01f, 1.120494157e-01f, 1.891212761e-01f, 9.668367356e-02f, 1.200093925e-01f,
  -3.603261709e-02f, -6.879688054e-02f, 1.820275635e-01f, -4.338997602e-01f, 1.226806641e-02f, -6.541363895e-03f, -9.936899692e-02f, -8.429548144e-02f,
  8.082899451e-02f, -8.730929345e-02f, -1.555417329e-01f, 2.383652478e-01f, -3.299278617e-01f, -7.536103576e-02f, -1.138515174e-01f, -1.564385742e-01f,
  -2.051313221e-01f, 1.314491332e-01f, 1.985908598e-01f, -8.630625159e-02f, 1.325941533e-01f, 5.515252948e-01f, -2.058787495e-01f, 1.760274172e-02f,
  -5.163207650e-02f, -1.006929502e-01f, -1.701355577e-01f, -3.904514015e-03f, -2.720201910e-01f, 9.016861022e-02f, -6.002831459e-01f, -7.210838795e-02f,
  -5.918863416e-02f, -3.695669770e-01f, -2.661114633e-01f, 6.471599638e-02f, 1.396408975e-01f, 1.197216287e-01f, 2.620124817e-01f, 3.317556679e-01f,
  1.161761358e-01f, 7.984972745e-02f, 9.351128340e-02f, 3.745699674e-02f, -6.214264780e-03f, 8.354599774e-02f, -1.197224855e-01f, 1.362750977e-01f,
  -1.531544775e-01f, -2.989060879e-01f, 4.450224340e-02f, 2.563603036e-02f, -1.525131762e-01f, -2.292448282e-01f, 5.433433056e-01f, 1.884694099e-01f,
  1.067119092e-01f, -9.198856354e-02f, 9.376468509e-02f, -4.624412209e-02f, -2.136350125e-01f, -6.626670063e-02f, 9.310457855e-02f, 6.765727699e-02f,
  1.817797422e-01f, -4.448954165e-01f, -1.384494185e+00f, -4.060671479e-02f, 5.860570073e-02f, -8.117370307e-04f, 2.679454684e-01f, 7.954372466e-02f,
  -1.570004225e-01f, 1.272660587e-02f, -1.438686103e-01f, -1.032309383e-01f, 7.059954107e-02f, 1.284954697e-02f, -1.161091179e-01f, 2.671210095e-02f,
  -3.076326102e-03f, 8.344136178e-02f, -1.389508508e-02f, -5.444688350e-02f, 1.385659128e-01f, -2.381255664e-02f, -9.045105428e-02f, -1.104451865e-01f,
  -1.619663090e-02f, 2.431316674e-02f, 3.790637478e-02f, 1.026712507e-01f, -2.180073038e-02f, -5.505056977e-01f, -8.781176060e-02f, 1.244675592e-01f,
  -1.473908275e-01f, -5.085905641e-02f, -2.216980159e-01f, -2.089011818e-01f, 4.279717058e-02f, 4.968251586e-01f, 9.053891897e-02f, 2.459428273e-02f,
  1.818108559e-01f, -8.900310099e-02f, 1.002003103e-01f, 1.032999605e-01f, 4.926946461e-01f, 9.797541797e-02f, -3.076568618e-02f, 5.676035881e-01f,
  -1.019486934e-01f, 6.903085113e-02f, -1.249067336e-01f, 1.093080267e-02f, 5.975404382e-02f, 1.538291872e-01f, 6.493265927e-02f, 4.441916943e-03f,
  8.370784521e-01f, -6.143088639e-02f, -1.003824174e-02f, -2.789752781e-01f, -1.302392632e-01f, 2.445062548e-01f, 3.265371323e-01f, 1.584263742e-01f,
  2.311314642e-01f, -5.036848187e-01f, 1.929816008e-01f, -3.644571453e-02f, -2.045357972e-01f, -2.027546614e-02f, -4.033549502e-02f, 3.850368261e-01f,
  6.656105071e-02f, -1.191696078e-01f, 1.090529799e+00f, -4.804370180e-02f, -1.406737864e-01f, 8.446039259e-02f, -4.920361564e-02f, 9.157475829e-02f,
  2.627896518e-02f, 5.467406660e-02f, 7.829579711e-02f, 1.905669570e-01f, -1.020398438e-01f, 6.274178624e-02f, -7.768269628e-02f, 1.932134479e-02f,
  -1.794815660e-01f, -2.592325211e-03f, 1.259228438e-01f, -7.803542912e-02f, -6.225319505e-01f, 2.296049148e-03f, 2.223606408e-02f, 2.065881193e-01f,
  1.258517206e-01f, -3.761155531e-02f, -2.001975626e-01f, 8.409215510e-02f, -7.931714877e-03f, -1.200844422e-01f, 3.195084631e-03f, 8.641539514e-02f,
  1.598989964e-01f, 1.535596997e-01f, 7.383569330e-02f, 3.724000454e-01f, -1.916670986e-02f, -2.207574844e-01f, 3.121391535e-01f, -1.940879673e-01f,
  7.693655789e-02f, 3.019881248e-01f, -1.672245562e-02f, 6.279203296e-02f, 9.261336923e-02f, -5.499581993e-02f, 7.350015640e-02f, 1.282925010e-01f,
  -9.047521651e-02f, -5.125428736e-02f, -1.349833310e-01f, 2.846269310e-02f, 7.658793032e-02f, -6.239140779e-02f, 5.676951632e-02f, -3.975300491e-02f,
  5.349688530e-01f, -2.431389987e-01f, 6.960466504e-02f, -1.057330593e-01f, 7.656348497e-02f, 3.206871152e-01f, -1.368331671e+00f, 1.125111729e-01f,
  -4.120628536e-02f, 1.185847044e+00f, -3.134116232e-01f, 2.167005688e-01f, 2.266093642e-01f, -3.361947462e-02f, -2.347640097e-01f, -1.789062917e-01f,
  1.619075984e-02f, -7.431859523e-02f, 2.803399563e-01f, -4.973050654e-01f, 4.896063358e-02f, -8.437439203e-01f, 2.128660828e-01f, -2.501967251e-01f,
  -8.589507341e-01f, -1.701603234e-01f, -6.111397147e-01f, 1.291640282e+00f, -2.201636881e-01f, -1.917789318e-02f, 7.336196303e-02f, 7.897323370e-02f,
  -1.222827286e-01f, -2.821409404e-01f, 9.261567891e-02f, -6.033842564e-01f, 1.342547834e-01f, -2.450639307e-01f, -7.021658123e-03f, 3.387808055e-02f,
  2.499735057e-01f, -8.650630713e-03f, -3.085296154e-01f, 4.631344229e-03f, -7.886280119e-02f, 8.142422438e-01f, -5.531309843e-01f, 2.661595047e-01f,
  6.724859476e-01f, 2.257793993e-01f, 2.299160361e-01f, 5.142259598e-01f, 3.651062846e-01f, -7.702237964e-01f, -2.927895486e-01f, -8.450853825e-01f,
  -2.098202556e-01f, 4.211378694e-01f, 3.970979154e-02f, -2.535803318e-01f, -6.463795304e-01f, -1.320841461e-01f, -4.377414659e-02f, -6.798476726e-02f,
  -6.011011451e-02f, 7.390541583e-02f, 1.808392704e-01f, -8.321740478e-02f, 8.864303678e-02f, 2.335240990e-01f, 1.402087957e-01f, -3.246808648e-01f,
  2.593750000e+00f, 2.853215635e-01f, -1.755428612e-01f, -2.654197216e-01f, 7.317201793e-02f, 1.888142973e-01f, -4.324512482e-01f, 1.625804007e-01f,
  -6.502977610e-01f, 3.150449276e+00f, -4.202728570e-01f, -2.610460296e-02f, -2.911748290e-01f, -4.029826522e-01f, -1.004683897e-01f, -4.856367111e-01f,
  -2.894716263e-01f, 7.438039035e-02f, 6.043846160e-02f, 1.201036349e-01f, -1.629681513e-02f, -4.328358769e-01f, -3.430483341e-01f, 1.511996537e-01f,
  -1.396331191e-02f, -7.908499986e-02f, -1.839895546e-01f, 4.898830652e-01f, 8.702990413e-02f, -7.334506139e-03f, 2.010271698e-01f, 3.528231382e-01f,
  2.635724247e-01f, 5.769182369e-02f, 1.253017932e-01f, -1.576474309e-01f, -3.627440035e-01f, 7.036180794e-02f, -1.236639544e-02f, -1.912494004e-01f,
  -5.432439968e-02f, 4.939880967e-01f, -1.502525806e-01f, 3.774600029e-01f, -9.947055578e-01f, -6.037029028e-01f, 3.215859830e-01f, 5.531601906e-01f,
  6.167307496e-02f, -1.254245192e-01f, -5.265631080e-01f, -5.719376802e-01f, -2.372033894e-03f, -6.987322569e-01f, -6.310187280e-02f, -1.482979581e-02f,
  1.664042920e-01f, 5.296855420e-02f, 1.674421579e-01f, 4.181639105e-02f, -3.454307914e-01f, -2.542555332e-01f, 7.275554538e-02f, 1.327424765e+00f,
  6.081845760e-01f, 2.068590373e-01f, -2.473848164e-01f, 2.024371922e-01f, 1.669218540e-01f, 5.639150739e-01f, 1.767290235e-01f, 1.345824152e-01f,
  -2.420596778e-03f, -3.613333702e-01f, -1.024116725e-01f, -3.209069371e-01f, -1.569503844e-01f, 4.815849662e-01f, 4.728060663e-01f, 4.008699208e-02f,
  -1.460049599e-01f, -2.162870020e-03f, 1.562465280e-01f, 1.640118361e-01f, -5.387442112e-01f, -1.743231118e-01f, 2.684894204e-01f, -1.421120763e-01f,
  1.467084885e-01f, 2.156516016e-01f, 6.934832335e-01f, 4.075067639e-01f, -8.536265790e-02f, 1.920019537e-01f, -8.143587410e-02f, -1.142765433e-01f,
  -3.152426705e-02f, 2.190714777e-01f, -1.975954324e-01f, -4.797425866e-02f, -1.458462030e-01f, 1.085404456e-01f, 2.179783955e-02f, 3.750361130e-02f,
  -3.752484322e-01f, -3.776367307e-01f, -1.380279213e-01f, 1.701988652e-02f, 2.633400559e-01f, 3.037291169e-01f, -2.997169495e-01f, 5.049895495e-02f,
  6.180192903e-02f, 1.287415326e-01f, 2.356037796e-01f, 2.119377851e-01f, -8.909610510e-01f, -3.308593631e-01f, -1.655322313e-01f, -3.904864788e-01f,
  2.659811974e-01f, -4.278503060e-01f, -1.288295984e-01f, -3.042672575e-01f, -1.642300487e-01f, 1.213046074e+00f, 2.420468807e+00f, 4.941702485e-01f,
  1.852537096e-01f, 5.791554451e-01f, 1.134940609e-01f, 3.012578487e-01f, 2.919712067e-01f, 8.506284654e-02f, 7.804949582e-02f, -5.522521734e-01f,
  -1.572950482e-01f, -2.150806226e-02f, 1.363420114e-02f, 3.944362998e-01f, 1.189163551e-01f, -6.981676444e-03f, -2.960476093e-03f, -8.553157002e-02f,
  3.918110728e-01f, 1.885231733e-01f, -1.083286703e-01f, -1.351945698e-01f, 3.606898338e-02f, 1.591198519e-02f, -3.498955667e-01f, 2.690062225e-01f,
  -1.487535983e-01f, -1.845188379e+00f, 9.161672741e-02f, 4.240086675e-01f, 2.118297964e-01f, 8.044394106e-02f, 1.305321455e-01f, -1.392306089e-01f,
  5.054995418e-02f, 5.749765038e-01f, 3.071570992e-01f, 2.757506073e-02f, -1.036317348e-01f, 2.016542479e-02f, -1.866258979e-01f, 1.066022068e-01f,
  4.251237810e-01f, 5.031497031e-02f, 1.268807203e-01f, -1.748652458e+00f, 6.640615314e-02f, 2.196759358e-02f, -2.600998282e-01f, 1.465554722e-02f,
  8.943333477e-02f, 2.136961520e-01f, 2.396591604e-01f, 8.682823181e-02f, -2.048814535e+00f, 3.122755140e-02f, 2.567039430e-01f, 5.291338079e-03f,
  8.226367831e-02f, 2.964273989e-01f, 2.861404419e-01f, 2.919242084e-01f, 1.949980855e-01f, -8.021421731e-02f, -3.138638288e-02f, 6.900084019e-02f,
  -3.008061051e-01f, 6.311148405e-02f, 2.582584918e-01f, 4.569108784e-01f, 3.636710942e-01f, 4.474145174e-02f, -4.302021503e+00f, 4.107983410e-02f,
  -2.802798897e-02f, -3.274415135e-01f, 1.034834981e-02f, -4.359461740e-02f, 2.085948139e-01f, 7.969919592e-03f, -1.822413504e-01f, -1.929107308e-02f,
  -4.974744096e-02f, 1.425959915e-01f, 1.813713163e-01f, -4.129201546e-02f, -4.902392253e-02f, -9.405173659e-01f, 1.545681506e-01f, 1.688581556e-01f,
  6.485197544e-01f, 1.480065137e-01f, -1.041988805e-01f, -4.298897386e-01f, -7.174871862e-03f, -1.978784800e-03f, -3.534072265e-02f, -6.035752594e-02f,
  -1.562692076e-01f, -3.133690953e-01f, 2.022756934e-01f, 4.216165096e-02f, 4.346013665e-01f, 5.243018270e-03f, -5.522789061e-02f, 4.851434752e-02f,
  -2.240021378e-01f, -9.081570059e-02f, -4.539811015e-01f, -3.179293871e-01f, 2.894854173e-02f, 6.761571392e-03f, -1.831665933e-01f, 3.143474758e-01f,
  -6.326262653e-02f, 1.529746056e-01f, -6.267164648e-02f, -1.049986124e+00f, 1.569930650e-02f, 2.841241360e-01f, 2.675004303e-01f, 2.763864398e-01f,
  2.769680135e-02f, 3.005983867e-02f, -3.949189093e-03f, 3.217884526e-02f, -2.202392519e-01f, -6.315921992e-02f, 1.241900399e-02f, 4.067260027e-02f,
  -7.418536115e-03f, -4.899695516e-02f, -6.812755018e-04f, -6.789863855e-02f, -6.591252983e-03f, 6.258767843e-01f, 1.910598129e-01f, -8.794085681e-02f,
  7.319492847e-02f, 2.418241277e-02f, 7.347801328e-02f, 5.127154291e-02f, 2.785133384e-02f, 9.565637261e-02f, -6.662034988e-02f, -6.341987848e-02f,
  -6.001853384e-03f, 1.329637170e-01f, -3.542573005e-02f, 4.861359298e-02f, 2.928412855e-01f, -4.298555106e-02f, -2.870133147e-02f, 1.022364140e+00f,
  -4.634001851e-02f, 2.170248516e-02f, 6.047477946e-02f, 7.682108320e-03f, -2.117633075e-02f, 7.891215384e-02f, -8.824743330e-02f, -5.232665315e-02f,
  4.410661459e-01f, -1.177913845e-01f, -1.708083227e-02f, -5.386322737e-02f, -6.932786852e-02f, -3.657018766e-02f, -8.400925994e-02f, -4.933806881e-02f,
  1.167393662e-02f, 5.631681681e-01f, -1.011130400e-02f, -8.130873553e-03f, -4.135476798e-02f, -6.781399250e-03f, -3.214406222e-02f, 1.281453371e-01f,
  -9.096796811e-02f, -1.531480551e-01f, 2.129472256e+00f, -1.240682751e-01f, -6.806567311e-02f, -6.438820064e-02f, -6.251387298e-02f, 2.288696542e-02f,
  -7.408920676e-02f, -2.972376533e-04f, 8.391250670e-02f, 2.670310438e-02f, 2.097559348e-02f, 1.631808095e-02f, -4.158638418e-02f, 8.162183687e-03f,
  4.834600538e-02f, 1.118333414e-01f, -5.203184485e-02f, 2.517463081e-02f, 1.539758146e-01f, -2.983803302e-02f, -2.067170665e-02f, -9.948942810e-03f,
  -5.738520622e-02f, 6.696771085e-02f, 2.566992640e-01f, 6.249293685e-02f, -1.598287374e-01f, -1.428559422e-01f, 1.033502072e-01f, -1.107489541e-01f,
  -9.198029339e-02f, -1.422591694e-02f, 1.250429451e-01f, 5.332912803e-01f, 1.434202790e-01f, 1.074778363e-01f, -3.173732460e-01f, 1.069937199e-01f,
  2.348373272e-02f, 2.055493742e-02f, 2.493950911e-02f, -8.709984273e-02f, -7.170911133e-02f, -1.895239390e-02f, -2.932724357e-02f, 2.659302652e-01f,
  -4.353499413e-02f, -4.565168172e-03f, -1.655411720e-02f, -8.708195761e-03f, 5.318536423e-04f, 1.331013162e-02f, -1.955415588e-03f, 2.513811924e-02f,
  -9.528042376e-02f, -1.253335550e-02f, -1.681139693e-04f, -3.577078879e-02f, 7.681466639e-03f, 4.739428312e-02f, -1.130603179e-01f, 4.630948417e-03f,
  8.313153684e-02f, -2.539350092e-02f, -9.219465777e-03f, -9.430080652e-03f, -1.061573327e-01f, -3.483658656e-02f, 3.138558194e-02f, -7.619962096e-03f,
  -1.943549514e-02f, -1.959051937e-03f, -1.611179709e-01f, -2.601064928e-02f, 4.729508609e-02f, 1.018759888e-02f, -1.295052283e-02f, -1.679897681e-02f,
  1.586935483e-03f, 2.263470367e-02f, 2.619821578e-03f, 2.485244870e-01f, 7.204427570e-02f, 7.706205826e-03f, 1.944790781e-02f, 3.470088914e-02f,
  3.070538864e-03f, 2.030009590e-02f, 4.211338609e-02f, -2.708679810e-02f, 1.439715475e-01f, 4.225377738e-02f, 3.548452258e-02f, 2.670432441e-02f,
  4.008481279e-02f, -2.688482404e-02f, -4.153342545e-02f, 4.394440912e-03f, 2.663689852e-02f, -1.013652422e-02f, 5.812902004e-02f, -4.100267775e-03f,
  3.010711446e-02f, 1.471664757e-02f, 3.473170847e-02f, 7.269212604e-02f, 8.188233525e-02f, 4.452358186e-02f, 2.297697812e-01f, 1.731669903e-01f,
  -1.213550568e-03f, 4.024815932e-02f, 5.869285390e-02f, 8.004506119e-03f, -3.244223818e-02f, 1.421297528e-02f, -3.307198361e-02f, -2.714455128e-02f,
  -7.310443092e-03f, -5.498764105e-03f, 1.571684517e-02f, -1.432173606e-02f, -9.647097904e-04f, 1.619118266e-02f, 2.481259592e-02f, 6.841408554e-03f,
  3.320541233e-03f, 1.059742197e-01f, -7.078332826e-03f, -4.018839449e-03f, 3.183839470e-02f, 2.717980556e-02f, -6.634865701e-02f, -2.649698034e-02f,
  4.580973461e-02f, -2.246381640e-01f, -1.412248332e-02f, -2.338912338e-02f, -3.583050519e-02f, -1.822743565e-02f, -1.525838114e-02f, 1.201373190e-01f,
  -1.830710098e-02f, 8.706078678e-02f, 6.276694536e-01f, 5.818277970e-02f, -7.396729197e-03f, 8.696555346e-02f, -1.770608500e-02f, -1.596758515e-02f,
  1.953063160e-02f, -1.717221923e-03f, 6.525762379e-03f, 3.971106932e-02f, 2.076939307e-02f, 1.397460327e-02f, 1.649982296e-02f, -1.048561279e-02f,
  -1.066348404e-01f, -6.222382560e-02f, -1.877822354e-02f, -6.905874610e-02f, 2.591084838e-01f, 2.760034204e-01f, 3.704871237e-02f, -4.101594165e-02f,
  9.624501318e-02f, -7.925377786e-02f, -3.984981775e-01f, 2.785147429e-01f, -4.761205912e-01f, -1.543705344e+00f, 8.886326849e-02f, 2.827473879e-01f,
  2.142532170e-02f, 2.486436665e-01f, -2.688015103e-01f, 4.748792648e-01f, 1.700902358e-03f, -2.427093685e-01f, -2.906223536e-01f, 2.010167390e-02f,
  2.444294542e-01f, -2.357836664e-01f, 2.614032328e-01f, -2.023281753e-01f, -1.514314860e-01f, 2.095236480e-01f, -9.683153033e-02f, -7.096684575e-01f,
  4.363165498e-01f, -1.481101364e-01f, 1.868345141e-01f, 2.065441906e-01f, -2.051850557e-01f, -6.526254117e-02f, 1.185997874e-01f, -1.299087852e-01f,
  -4.862586856e-01f, 2.941291630e-01f, -3.722546250e-02f, 1.727878749e-01f, 2.427577078e-01f, -6.667827964e-01f, -1.030758858e+00f, -5.169599131e-02f,
  -3.679176569e-01f, -2.234192193e-01f, 7.400879860e-01f, 5.847112089e-02f, 3.781060278e-01f, 6.491683722e-01f, -7.384880632e-02f, -1.169168651e-01f,
  2.235041559e-01f, 5.933213979e-03f, -1.808887243e+00f, 6.184868813e-01f, 1.853185594e-01f, 2.671111226e-01f, 4.346012473e-01f, -2.629984617e-01f,
  1.038151234e-01f, -7.366663963e-02f, 1.899246871e-01f, -1.324093342e-01f, -3.611534238e-01f, -1.045840234e-01f, -1.382055134e-01f, -9.800705314e-02f,
  -8.400034159e-02f, -5.154782534e-01f, -4.250929877e-02f, -1.171682179e-01f, -1.636268348e-01f, 2.527196705e-01f, 6.713227928e-02f, -2.924772501e-01f,
  1.117567718e-01f, -7.111859322e-01f, -5.416175127e-01f, -3.609603941e-01f, -9.523448348e-01f, 4.118778408e-01f, -2.110959888e-01f, -1.741172373e-01f,
  5.561487377e-02f, -3.948541284e-01f, 3.572542965e-01f, 5.548387766e-01f, -1.930933744e-01f, 4.221296012e-01f, 1.152722359e+00f, -3.591082990e-01f,
  -8.785329759e-03f, -3.865036368e-01f, -6.939696670e-01f, -2.022766918e-01f, -2.588050067e-01f, 2.746069618e-02f, -1.748028696e-01f, -2.569697499e-01f,
  2.853088379e-01f, -9.709414840e-02f, 2.046485543e-01f, 4.843108654e-01f, -3.807642311e-02f, 9.889220819e-04f, -7.019926794e-03f, -3.786526620e-02f,
  -1.144688129e-01f, 7.657071948e-02f, -1.044042595e-02f, -3.403659165e-02f, 2.302711271e-02f, 1.950058527e-02f, -4.924502596e-02f, 2.943508327e-02f,
  -6.004987657e-02f, -1.171224266e-01f, -8.225641400e-02f, -1.219046861e-02f, -1.639689356e-01f, 3.439127654e-02f, -2.124659345e-02f, 7.426388562e-02f,
  5.343796685e-03f, -4.706552997e-02f, -2.254745662e-01f, 1.575043425e-02f, 6.157977134e-02f, -7.982030511e-02f, 6.343588233e-02f, -3.474150598e-02f,
  4.264924303e-02f, 6.039842218e-02f, 1.480387524e-02f, 3.497094214e-01f, 1.688249707e-01f, -1.784553006e-02f, 6.520824134e-02f, 7.686679065e-02f,
  -8.134996891e-02f, 2.695173025e-04f, 1.388025377e-02f, -5.334638059e-02f, 3.191426694e-01f, 1.379501969e-01f, -1.638141647e-02f, 8.907255530e-02f,
  5.981305242e-02f, -2.253715843e-01f, -1.942707002e-01f, -3.804368898e-02f, -7.216992974e-02f, -7.438056171e-03f, 2.955514193e-01f, -3.700738773e-02f,
  1.846899092e-02f, 1.519690454e-01f, -2.375400811e-02f, -5.827620253e-02f, 2.901359648e-02f, 3.915718943e-02f, 7.355146408e-01f, 2.525249422e-01f,
  2.883282490e-02f, 1.198105216e-01f, 1.824822724e-01f, -6.041914597e-02f, -2.404155955e-02f, -5.933818221e-02f, 3.324151039e-02f, -8.194735274e-03f,
  -3.696314991e-02f, -3.475446999e-02f, -8.041664958e-02f, 6.070503499e-03f, -2.864089794e-02f, -6.038364395e-02f, -8.208941668e-03f, -1.054777279e-01f,
  3.961975873e-02f, 4.324394464e-02f, 2.183710039e-02f, 7.852585986e-03f, 6.793829799e-02f, -1.077536270e-01f, -1.581882983e-01f, -6.986713409e-02f,
  -1.223807633e-01f, 8.143305779e-03f, -8.557789028e-02f, -3.840933740e-02f, 8.497055620e-02f, -1.026761904e-02f, 1.098275706e-01f, 1.982969642e-01f,
  -2.023936994e-02f, 1.941524446e-02f, 3.668325245e-01f, -1.243881583e-01f, 1.675613038e-02f, 7.297982275e-02f, -1.605028808e-01f, -8.687957376e-02f,
  -2.516743541e-02f, 1.054171380e-02f, -3.878018633e-02f, -4.466526210e-03f, 6.417810917e-02f, -3.143582121e-02f, 5.496658757e-02f, 1.285837144e-01f,
  -1.402030438e-01f, 2.481990755e-01f, -7.590037584e-02f, -1.682104617e-01f, 6.151655316e-02f, -3.414334953e-01f, 3.662051260e-02f, 2.414288223e-01f,
  -1.126369461e-03f, -7.702106982e-02f, 1.230980515e+00f, -2.351281643e-01f, 4.320570230e-01f, 3.188742161e+00f, -3.179081380e-01f, -2.502948642e-01f,
  3.327181339e-01f, 8.561711758e-02f, 1.043696776e-01f, 8.526832610e-02f, -2.671215497e-02f, -5.773881674e-01f, 9.838335514e-01f, -3.137120306e-01f,
  -1.972385123e-02f, 4.598793685e-01f, 4.458691925e-03f, -8.983068913e-02f, -4.542421103e-01f, -3.197509050e-02f, 2.293416709e-01f, -5.853588879e-02f,
  2.130595446e-01f, 1.893197931e-02f, 2.375341952e-01f, -3.551711142e-02f, -6.255120039e-02f, -8.271896839e-02f, -1.985619366e-01f, 3.591209352e-01f,
  2.655147612e-01f, 2.960845083e-02f, -8.437752724e-02f, 5.052992702e-02f, -1.151570678e-02f, -2.499812841e-01f, 2.992127538e-01f, -1.891367733e-01f,
  2.591788769e-03f, 1.069945812e+00f, -3.162840009e-01f, -2.367539406e-01f, 2.054561377e-01f, -6.531751901e-02f, -3.778264523e-01f, -4.525270760e-01f,
  -4.507627785e-01f, 1.644046754e-01f, 2.567691803e-01f, -2.057147622e-01f, 1.009638011e-01f, -9.212476760e-02f, -1.182337105e-01f, 5.576642156e-01f,
  3.603094518e-01f, 9.239718318e-02f, 4.798359275e-01f, -3.640735149e-01f, 2.735825777e-01f, 8.495048434e-02f, 9.017761052e-02f, 1.663525403e-01f,
  3.750002012e-02f, 2.123330832e-01f, -1.000369713e-01f, -3.704594970e-01f, -1.102475166e+00f, -5.896611810e-01f, 9.225570410e-02f, -9.730319679e-02f,
  -1.419165134e-01f, 3.682547808e-02f, 9.138088226e-01f, 7.512687892e-02f, 7.000476122e-01f, 2.056588233e-01f, -2.313427329e-01f, 3.082177937e-01f,
  -3.129853606e-01f, 4.505106807e-01f, 2.616988719e-01f, 1.420619041e-01f, 2.949226499e-01f, -6.283129007e-02f, -7.191667557e-01f, 2.281154841e-01f,
  1.312932279e-02f, -1.279197186e-01f, 1.136961803e-01f, -1.845577359e-01f, -8.500874043e-02f, -8.706130087e-03f, 1.812886596e-01f, 1.338330656e-01f,
  8.330795914e-02f, -1.122790016e-02f, 7.082098722e-02f, -5.406323820e-02f, -3.333951905e-02f, -6.704382598e-02f, -1.108831447e-02f, -2.303205989e-02f,
  3.114916682e-01f, 6.362679601e-02f, -3.850179724e-03f, -3.086096048e-02f, 1.089274418e-02f, 4.487452284e-02f, -6.069038808e-02f, 1.140640676e-01f,
  -4.538789690e-01f, -6.967544556e-01f, -2.059594095e-01f, 1.685836464e-01f, 4.527459294e-02f, 5.845254660e-02f, -3.449768573e-02f, 4.623708874e-02f,
  3.619008511e-02f, -1.310952157e-01f, -9.340814501e-02f, -3.465603665e-02f, 5.702299997e-02f, -1.452604085e-01f, 8.707689494e-02f, 2.231766097e-02f,
  8.032731712e-02f, 3.832378238e-02f, 2.023724914e-01f, -1.111275434e+00f, 5.591382086e-02f, -7.693457883e-03f, -9.650085866e-02f, 2.359025367e-02f,
  -3.128020093e-03f, -4.023669660e-02f, 4.567377642e-02f, 6.363949180e-02f, -7.841915488e-01f, 1.970844902e-02f, 1.768080145e-02f, -3.362606466e-02f,
  7.095020264e-02f, -9.282100946e-04f, -1.268045977e-02f, 1.611818187e-02f, -1.289255917e-01f, -3.861084580e-01f, -9.499354288e-03f, 1.911231317e-02f,
  -2.165937982e-02f, 6.223300099e-02f, -4.616431519e-02f, 6.898597628e-02f, -7.175184786e-03f, 5.054548383e-02f, -1.050595045e+00f, 2.827948332e-02f,
  1.217300445e-02f, 9.114712477e-02f, 6.862681359e-02f, -1.252051145e-01f, -2.242347971e-02f, -8.445241302e-02f, -8.240132034e-02f, -5.167112499e-02f,
  -1.178306788e-01f, -8.390027285e-02f, 5.393162742e-02f, -3.684513271e-02f, -1.580457017e-02f, 1.819326729e-02f, 4.332770407e-02f, 2.469446324e-02f,
  -6.864361167e-01f, -7.610308379e-02f, -2.834565192e-02f, -4.404226318e-02f, 6.881491840e-02f, -8.803682029e-02f, -1.272332966e-01f, 1.325973123e-02f,
  -2.418096364e-01f, -2.336236835e-01f, -1.076451689e-01f, 1.006029695e-01f, 1.079485714e-01f, 1.297269166e-01f, -7.124337554e-02f, -1.884489954e-01f,
  -9.045838565e-02f, -1.373449266e-01f, -1.650642604e-01f, -1.725894809e-01f, -4.086695611e-02f, -1.045322493e-01f, -6.801086664e-02f, 8.202457428e-02f,
  1.911122911e-02f, -5.474178120e-03f, 8.497074246e-02f, -5.165739059e-01f, 4.074909911e-02f, 3.076720983e-03f, -2.292831056e-02f, 7.302489877e-02f,
  3.844465017e-01f, 1.635095179e-01f, 3.636271507e-02f, -2.149107903e-01f, 2.406161427e-01f, 3.431841731e-03f, -1.220577955e-01f, -1.857287884e-01f,
  3.420542181e-02f, 5.674400330e-01f, -1.184819460e+00f, 3.226867616e-01f, 1.739180088e-01f, -1.179068089e+00f, 1.071158886e+00f, -3.609474897e-01f,
  -4.007494450e-01f, -3.948755264e-01f, -2.746314108e-01f, -4.340652823e-01f, 3.651230931e-01f, 5.821352005e-01f, 4.954563975e-01f, -2.051239312e-01f,
  4.867426157e-01f, 9.394785762e-02f, 2.173976004e-01f, 2.045318186e-01f, 2.213092148e-01f, -3.267401829e-02f, -2.523779273e-01f, -2.622505665e+00f,
  -9.076831490e-02f, 1.577890813e-01f, -1.445091665e-01f, 5.011079311e-01f, 1.577664912e-01f, -2.446396649e-01f, 1.735105067e-01f, 5.503246188e-01f,
  -1.936512232e+00f, -3.106559068e-02f, 4.013571441e-01f, 2.411896884e-01f, -1.808478534e-01f, 3.225237429e-01f, -6.375094652e-01f, 9.309709817e-02f,
  -6.047698259e-01f, -7.534090281e-01f, 2.952412367e-01f, 6.633797288e-02f, -4.768082201e-01f, 7.975643128e-02f, 6.382988691e-01f, 1.000685573e+00f,
  7.936813831e-01f, -3.045822680e-01f, -4.095639229e+00f, -2.977043390e-03f, -1.048991799e+00f, -4.896947443e-01f, -3.101166487e-01f, -9.867163002e-02f,
  -5.917830467e-01f, 3.349474967e-01f, -5.966490507e-01f, 4.304947853e-01f, 7.404778898e-02f, 5.193276405e-01f, -7.944563031e-02f, -4.257719219e-01f,
  8.000159264e-02f, -1.219352409e-01f, -1.281544659e-02f, 4.799211621e-01f, 1.845295310e+00f, 2.609413862e-01f, -3.564599156e-01f, 1.439372301e-01f,
  7.574182749e-02f, 8.084439635e-01f, -3.273805976e-02f, 6.097894311e-01f, 1.935126185e-01f, -5.774019957e-01f, -2.874362469e-01f, -6.524121165e-01f,
  7.448337078e-01f, -3.562932014e-01f, 2.906687856e-01f, 4.949155748e-01f, -5.136487260e-02f, 8.232575059e-01f, 3.707707524e-01f, -5.090446472e-01f,
  3.112492859e-01f, 3.032577038e-01f, -2.525188327e-01f, 2.173970640e-01f, -2.218082100e-01f, -1.837862730e-01f, -3.205297589e-01f, -9.747185707e-01f,
  5.305985212e-01f, 8.316208422e-02f, 2.183882892e-01f, 3.572225869e-01f, -6.195967674e+00f, 2.567472458e+00f, -1.507412672e+00f, 7.179310799e+00f,
  -6.293714046e+00f, 1.093727827e+00f, 3.773844481e+00f, 1.401659846e+00f, 2.815605402e+00f, -2.695260525e+00f, -2.579177141e+00f, -1.022214964e-01f,
  -1.298595369e-01f, -1.213432327e-01f, -1.721790284e-01f, 4.828788340e-02f, -1.082654372e-01f, 2.285055369e-01f, 8.620169759e-01f, -1.314444423e+00f,
  -2.968173623e-01f, 6.878952682e-02f, 6.921738386e-03f, 1.098228097e+00f, 2.044640541e+00f, 6.768209338e-01f, -1.624652594e-01f, -3.687244607e-03f,
  3.467091024e-01f, -1.524910808e+00f, -2.270042002e-01f, -2.237090170e-01f, 3.321948647e-02f, -1.792794764e-01f, 2.618792094e-02f, 1.002719440e-02f,
  -1.281059384e-01f, -3.490491956e-02f, -4.555409774e-02f, -8.805210888e-02f, 4.519860819e-02f, 6.534870714e-02f, 8.570835739e-02f, 1.738039255e-01f,
  2.535544708e-02f, 6.095868945e-01f, -1.096520796e-01f, 3.292712942e-02f, 5.830542445e-01f, 1.072317028e+01f, 7.047914267e-01f, 5.126940086e-02f,
  1.135290265e-01f, 1.597391725e+00f, 2.857613325e+00f, 9.874777794e-01f, 6.945151370e-03f, 3.207434714e-01f, 4.535944164e-01f, 4.092034400e-01f,
  3.214161098e-01f, 1.917205900e-01f, -1.408687383e-01f, -2.367163897e-01f, -1.785413623e-01f, -8.918083273e-03f, -3.617458045e-01f, -4.380732717e-04f,
  -4.516339898e-01f, -2.185765028e+00f, -2.646698236e+00f, -2.743864059e-01f, 9.982471913e-02f, 2.546248138e-01f, -6.646789074e+00f, -4.339128494e+00f,
  -1.971450895e-01f, -1.940225624e-02f, -4.724834561e-01f, -9.661566615e-01f, -6.901095510e-01f, -1.453893632e-01f, -1.059131771e-01f, -2.050590515e-01f,
  -4.313577116e-01f, -3.651000857e-01f, -1.817844212e-01f, 3.347508609e-04f, 3.991682082e-02f, 1.915251464e-01f, 1.193147451e-01f, 2.213346064e-01f,
  1.502150320e-03f, -4.888331592e-01f, -5.121463537e-01f, 3.790416420e-01f, 2.286171466e-01f, -1.388333142e-01f, -5.197267532e-01f, 1.346185923e+00f,
  4.820340276e-01f, -4.141292721e-02f, -1.062991396e-01f, -7.154712826e-02f, -6.484944224e-01f, -5.562729239e-01f, 6.936331093e-02f, 1.154298559e-01f,
  1.768714935e-01f, -2.853628695e-01f, -3.243367001e-02f, 8.170665056e-02f, 1.186856255e-01f, 5.092466995e-02f, 6.515749544e-02f, -2.811911702e-02f,
  1.097099110e-01f, 1.294820756e-01f, 1.531904787e-01f, -1.108765602e-01f, -1.824149787e-01f, 2.867848575e-01f, 5.685048923e-02f, -1.652333856e+00f,
  -3.986199796e-01f, -6.237645149e-01f, 3.433877369e-03f, 7.330933958e-02f, 1.080205441e-01f, -1.741209477e-01f, -2.434236109e-01f, 1.918271370e-02f,
  1.031169817e-01f, 1.517836303e-01f, 1.083930954e-01f, 2.211790532e-01f, 2.090505660e-01f, 1.305685192e-02f, -1.601042897e-01f, -7.829006016e-02f,
  -1.272545308e-01f, -6.631267071e-02f, 1.512948610e-02f, -1.144216061e-01f, -1.254662871e+00f, -1.024252400e-01f, 9.210478514e-02f, 1.187516227e-01f,
  1.154564261e+00f, 4.231257141e-01f, -2.111728191e-01f, 1.028857827e-01f, 1.944365799e-01f, 2.144809067e-01f, 9.075196385e-01f, 2.829016149e-01f,
  4.090018570e-02f, -1.376551837e-01f, -1.781854481e-01f, -1.011608392e-01f, -6.988555193e-02f, -1.540047973e-01f, -1.125439405e-01f, -1.372945774e-02f,
  1.484979838e-01f, -1.503997147e-01f, -1.174007878e-01f, -2.945889346e-02f, -3.396238983e-01f, -2.188285440e-01f, -8.374384046e-01f, -1.493779421e-01f,
  -2.615221217e-02f, -9.199841619e-01f, 1.967853904e+00f, -7.515856028e-01f, -2.281671613e-01f, -5.237397552e-02f, -3.319576681e-01f, -8.264088035e-01f,
  -2.792133391e-01f, -1.996445507e-01f, -2.265426703e-02f, -2.713871561e-02f, 1.055032536e-01f, 6.886941940e-02f, 3.856412694e-02f, -6.503253430e-02f,
  1.665764153e-01f, 3.536928296e-01f, 1.033545658e-01f, -5.385668483e-03f, -4.149019346e-02f, 5.114659071e-01f, 2.429739952e+00f, 6.207939386e-01f,
  1.035225987e-01f, 1.901859045e-01f, 1.679913253e-01f, -4.898598194e+00f, 3.484190404e-01f, 1.802052557e-01f, 8.557059616e-02f, 3.239702284e-01f,
  7.059606910e-01f, 2.026270628e-01f, -7.692601532e-02f, -4.500944540e-02f, 2.765956335e-02f, 1.314208508e-01f, 6.069707870e-02f, -1.097030640e-01f,
  -1.697895378e-01f, -3.285235912e-02f, 7.077610586e-03f, -1.076658890e-01f, -2.784053385e-01f, -1.062119156e-01f, -1.234481335e-01f, 3.571144044e-01f,
  5.500664189e-02f, -2.775849998e-01f, 2.367752641e-01f, -4.524759352e-01f, 2.314695120e+00f, 2.109285891e-01f, 1.622023433e-01f, -5.504612997e-02f,
  2.158730477e-01f, 1.070604920e+00f, 5.804663897e-01f, -1.980483904e-02f, -1.487704217e-01f, -1.582358032e-01f, 4.063360393e-02f, -2.456166968e-02f,
  -2.337699234e-01f, -1.180046704e-02f, 1.433123648e-01f, 1.025845408e-01f, 1.912514269e-01f, 1.459459811e-01f, -5.842503533e-02f, 1.754089594e-01f,
  6.179154515e-01f, 7.243393362e-02f, -1.568178087e-01f, -1.514099687e-01f, -7.518430054e-02f, -1.072543979e+00f, 6.689766049e-01f, 5.992339179e-02f,
  -1.840790361e-01f, -6.446702778e-02f, 2.298202813e-01f, 1.294791996e-01f, -2.237479575e-02f, 1.228853017e-01f, 1.420874596e-01f, 1.301653087e-01f,
  8.448340744e-02f, 5.065767840e-02f, -1.227004901e-01f, -1.905838251e-01f, -2.411108762e-01f, -9.481332451e-02f, -9.973249584e-02f, 4.114003107e-02f,
  -5.683490261e-02f, -7.930280566e-01f, 6.022546440e-02f, -6.180816796e-03f, 3.994565085e-02f, 1.382986754e-01f, 3.073093414e+00f, 7.810446620e-01f,
  9.194227308e-02f, 7.548543066e-02f, 2.396096662e-02f, -4.620171189e-01f, -7.557609677e-02f, 3.658499941e-02f, 3.802279755e-02f, -5.026289821e-02f,
  -2.024658024e-01f, -1.350742579e-01f, -2.738568233e-03f, 1.222931668e-01f, 2.549040876e-02f, -1.082704663e-01f, 2.289894037e-02f, 1.636390239e-01f,
  3.925108537e-02f, 9.059601277e-02f, 3.547377512e-02f, -1.080340371e-01f, 1.619601697e-01f, -1.004736796e-01f, 2.247551978e-01f, -7.261013031e+00f,
  -7.136325240e-01f, -4.219126329e-02f, 1.356091052e-01f, 6.189480424e-02f, -2.417008951e-02f, -5.024555326e-01f, 3.404851630e-02f, 3.586325645e-01f,
  2.199131697e-01f, -1.583125293e-01f, 2.961878292e-02f, 1.766923517e-01f, 8.242332190e-02f, -2.688654065e-01f, 2.471115589e-01f, -5.292351171e-02f,
  -1.058656722e-01f, 4.675289094e-01f, -1.813523769e-01f, 1.702226996e+00f, 7.657555491e-02f, 4.486122727e-01f, 1.249673143e-01f, 5.774534345e-01f,
  -4.282387257e+00f, 4.726857841e-01f, -1.639478654e-01f, 7.170803100e-02f, 5.795221925e-01f, 3.196913600e-01f, 1.670267880e-01f, -1.665959358e-01f,
  1.134342179e-01f, -4.353032708e-01f, 3.423957825e-01f, 2.912881076e-01f, -3.064676560e-02f, 1.985355169e-01f, -1.365783513e-01f, 9.431584924e-02f,
  -1.582762003e-01f, 3.989937901e-02f, 2.161880210e-02f, 5.427163243e-01f, -4.428419769e-01f, 1.965053827e-01f, 4.514223039e-01f, 1.493044849e-02f,
  1.944229007e+00f, 2.359437704e+00f, 5.994275212e-01f, 3.905048668e-01f, 2.017495632e-01f, 1.338917136e+00f, 8.718801737e-01f, 7.263270617e-01f,
  3.358194828e-01f, 6.773360074e-02f, 2.569236755e-01f, 5.085903406e-01f, 2.980048060e-01f, -2.299807519e-01f, -7.042819262e-02f, 1.064762995e-01f,
  2.569289804e-01f, -2.075639814e-01f, -1.898638308e-01f, 3.874503076e-01f, -2.294274569e-01f, -4.531468451e-01f, -2.102200270e+00f, -9.021456540e-02f,
  2.446737736e-01f, 5.737019703e-02f, -7.813725948e+00f, 9.592827410e-02f, -2.908263542e-02f, 1.481527537e-01f, -8.370065093e-01f, -4.258110523e-01f,
  -7.647988200e-01f, -2.296846956e-01f, -6.112895533e-02f, -2.168187313e-02f, 2.366771251e-01f, 3.370223641e-01f, -2.875355445e-02f, -1.249669939e-01f,
  -2.412718832e-01f, 8.424419165e-02f, -1.323010474e-01f, 6.784527749e-02f, -4.233704507e-01f, 1.560176462e-01f, 1.684923172e+00f, 4.545974433e-01f,
  -1.156778354e-02f, -4.262095317e-02f, 1.886703491e+00f, 3.021517098e-01f, 3.601968288e-01f, 2.451466620e-01f, -2.924563587e-01f, -5.511999130e-01f,
  -9.486686587e-01f, -9.558618665e-01f, -5.592690110e-01f, 3.339418769e-02f, -1.233853623e-01f, 1.533141732e-02f, -8.316042274e-02f, -5.220450163e-01f,
  -7.086141407e-02f, 8.189157397e-02f, 4.754906520e-02f, 1.037230343e-02f, -6.551904976e-02f, 9.477256238e-02f, -1.320389360e-01f, -9.971416593e-01f,
  4.586420059e-01f, -6.268268079e-02f, 7.829053700e-02f, -9.806671143e-01f, 9.451036453e+00f, 4.840669632e-01f, 9.997370094e-02f, 6.083795428e-02f,
  5.561495423e-01f, 2.427215338e+00f, 6.932980418e-01f, 7.487459481e-02f, -5.108478293e-02f, -2.467322396e-03f, -5.104143545e-02f, -2.047456354e-01f,
  -1.512458175e-01f, -4.870941862e-03f, 1.055838447e-02f, -1.882167882e-03f, -3.748944029e-02f, 2.908751369e-02f, 2.989781462e-02f, -1.206469461e-01f,
  7.170484960e-02f, -2.007794827e-01f, -5.636258051e-02f, -1.175793931e-01f, -1.578217030e+00f, -2.916990757e+00f, 1.300609410e-01f, -1.541291326e-01f,
  -7.935189456e-02f, -8.586662412e-01f, -1.413295388e+00f, -3.424523771e-02f, -9.094811976e-02f, 1.782843322e-01f, 1.646119058e-01f, 1.265822351e-02f,
  9.801021963e-02f, 7.785447687e-02f, -2.679966204e-02f, 3.269017488e-02f, -2.133597620e-02f, 7.787548751e-02f, 5.836274009e-03f, 3.006622568e-02f,
  8.610045910e-02f, -4.382161200e-01f, 1.107598320e-01f, -2.695736289e-02f, -6.026829407e-02f, 1.746914387e-01f, -4.953077316e+00f, -1.086935282e+00f,
  -4.203397036e-02f, -7.317843288e-02f, 1.023263708e-01f, 1.714975946e-02f, 1.039728075e-01f, 5.367113277e-02f, -6.420029700e-02f, -6.376391649e-02f,
  -2.120593041e-01f, -2.059764713e-01f, -9.074914269e-03f, -9.054266661e-02f, -9.984277934e-02f, -1.862168283e-04f, 6.016308814e-02f, 1.270064414e-01f,
  1.166913193e-02f, 3.327949345e-01f, 6.290540695e-01f, 1.116477475e-01f, 1.010896079e-02f, 1.160576660e-02f, 3.117742300e+00f, 6.262655735e+00f,
  4.594805464e-02f, -2.570609748e-02f, -5.955976434e-03f, 2.778902650e-01f, -4.327857196e-01f, -1.029235590e-02f, 7.082805783e-02f, 9.158747643e-02f,
  6.315963715e-02f, -7.368984073e-02f, 7.336803526e-02f, 9.305854887e-02f, -3.223227104e-03f, 3.764627501e-02f, 6.064087898e-02f, -2.169529162e-02f,
  -2.518999018e-02f, -3.180271015e-02f, 2.663945258e-01f, 4.035115242e-01f, 1.429659575e-01f, -2.935580350e-02f, 1.934372447e-02f, 1.315892041e-01f,
  4.594391286e-01f, 4.556996748e-02f, 2.452766337e-02f, 5.441018939e-02f, 1.164161935e-01f, -2.654334903e-01f, -1.366048902e-01f, 5.209703371e-02f,
  -5.798944458e-02f, -3.856465966e-02f, 1.142433006e-02f, -2.415843308e-02f, -6.784220040e-02f, 1.328169089e-02f, 3.016111255e-02f, -6.738084834e-03f,
  -4.106522352e-02f, 1.756891422e-02f, -6.481796503e-02f, -2.938071489e-01f, -8.578085303e-01f, 6.609946489e-03f, 3.156930953e-02f, -5.073761567e-02f,
  1.534164786e+00f, 2.121114492e+00f, -2.648597956e-01f, -3.439913318e-02f, 4.051272757e-03f, 3.235008940e-02f, -9.210190922e-02f, 2.655574121e-02f,
  1.892064139e-02f, -9.406485409e-02f, -5.570564419e-02f, -1.831421815e-02f, -7.559388131e-02f, -8.973430842e-02f, 2.821608260e-02f, 3.890843317e-02f,
  1.284442097e-02f, -3.697631881e-02f, 9.656839818e-02f, 5.349505693e-02f, -3.336654603e-01f, 6.131375432e-01f, -2.261920087e-02f, 6.830238551e-02f,
  1.180561539e-02f, -7.052983642e-01f, 6.461008191e-01f, -5.057269931e-01f, 1.737869158e-02f, 5.005427077e-02f, -1.182280332e-01f, -2.172209322e-01f,
  -1.560341120e-01f, -1.540582534e-02f, 1.985093020e-02f, 1.520899404e-02f, 7.572180033e-02f, 8.223357052e-02f, -2.203612588e-02f, 5.277296901e-02f,
  5.635936931e-02f, 9.263736196e-03f, 3.867284954e-02f, 2.095635422e-02f, 3.889989480e-02f, -1.661427319e-01f, 5.587062836e-01f, 2.184492350e-01f,
  -7.768207695e-03f, 8.975346386e-02f, 1.917559355e-01f, -1.576620340e+00f, 4.444506168e-01f, 3.714023158e-02f, 4.242333770e-02f, -2.774423454e-03f,
  2.522828579e-01f, 1.711273193e-01f, -8.904700167e-03f, 4.411582835e-03f, 5.051663145e-02f, 1.261999458e-01f, 2.126293257e-02f, -3.874051571e-02f,
  -3.740698099e-02f, -2.579051256e-02f, -8.911695331e-03f, -1.925867982e-02f, 2.780374140e-03f, -5.368139222e-02f, -2.806355655e-01f, 1.873230911e-03f,
  5.590597540e-02f, -8.719380945e-02f, -7.363629527e-03f, 4.185178876e-01f, 8.347528428e-02f, 2.227665484e-01f, 1.577321999e-02f, -2.024491690e-02f,
  -3.897519037e-02f, -5.239093211e-03f, 1.331912726e-01f, -1.069174614e-02f, 7.692426443e-03f, -6.197391823e-02f, -5.793463811e-02f, -7.469157875e-02f,
  -3.335168585e-02f, -7.850033231e-03f, 9.110866487e-02f, 3.186408058e-02f, 5.367563572e-03f, -2.385505708e-03f, 2.094468288e-02f, -1.076950058e-01f,
  1.762092113e-01f, -1.310418993e-01f, -6.793435663e-02f, -6.431520730e-02f, 1.364758015e-01f, -2.922779083e+00f, -1.795770228e-01f, -7.012616843e-02f,
  -7.894456387e-03f, 3.554594219e-01f, 6.547164321e-01f, -1.144594103e-01f, -2.010782622e-02f, 8.878909796e-02f, 1.442369670e-01f, 1.383074820e-01f,
  5.337807164e-02f, 8.651557378e-03f, 5.635473132e-02f, 2.069181763e-02f, -4.674605653e-02f, 7.297183573e-02f, 4.378490895e-02f, 2.766571939e-02f,
  -6.639348716e-02f, 7.064254284e-01f, 6.773825884e-01f, 5.320617184e-02f, 5.813865736e-02f, 2.215439379e-01f, -2.358107805e+00f, 5.781917572e-01f,
  4.242343083e-02f, 2.761587314e-02f, -6.077724323e-02f, -1.513562799e-01f, -1.716054976e-01f, 5.764633045e-02f, -2.521083131e-02f, -7.506099343e-02f,
  -1.265832335e-01f, -6.643040478e-02f, -4.829668626e-02f, 5.759800598e-02f, -3.398507833e-03f, -1.181602702e-01f, -4.277656844e-04f, 6.162107736e-02f,
  -2.803103765e-03f, -1.240263041e-02f, -2.700180411e-01f, -1.179563329e-01f, 8.594225161e-03f, -7.629597187e-02f, -2.820834517e-02f, -6.139827371e-01f,
  -2.628797293e-01f, -2.484907955e-02f, -5.080887303e-02f, -1.131477728e-01f, -5.303693414e-01f, -4.743975028e-02f, 5.650267750e-02f, 6.647271663e-02f,
  3.922303021e-02f, -8.786611259e-03f, 8.406984620e-03f, 5.998272821e-02f, 2.529692091e-02f, -1.593333553e-03f, 1.710544080e-01f, -4.773655161e-02f,
  -1.230161190e-01f, 9.292995185e-02f, 9.867565036e-01f, 8.556516767e-01f, -8.771894872e-02f, -3.525378928e-02f, 2.381918430e-01f, 8.795612454e-01f,
  3.879263401e+00f, 6.336641312e-02f, 3.900922090e-02f, -2.189148404e-02f, -4.130193219e-02f, -1.391051859e-01f, -1.690822542e-01f, -1.049124971e-01f,
  -4.794262350e-03f, -2.398908138e-03f, 1.129654422e-01f, 3.682041913e-02f, -3.863289952e-02f, -3.106004559e-02f, -7.782591879e-02f, 3.292858673e-05f,
  1.219059993e-02f, -5.073707178e-02f, 1.991693676e-02f, -1.960347146e-01f, 1.298871636e-02f, 3.002456762e-02f, 2.187962644e-02f, 3.599021956e-02f,
  4.508279860e-01f, 2.486032099e-01f, -3.589564562e-02f, 1.053415462e-01f, -6.950724870e-02f, 6.388102472e-02f, -1.667623073e-01f, -3.303847313e-01f,
  6.895229220e-03f, 3.042451106e-02f, -2.549926005e-02f, 5.765099078e-02f, 7.612235844e-03f, 3.786394140e-03f, -8.222340792e-02f, -6.693856325e-03f,
  2.835177816e-02f, -5.497569963e-02f, -3.910176083e-02f, -5.325853452e-02f, 6.138525158e-02f, 3.709695935e-01f, 9.693162888e-02f, -4.913862050e-02f,
  -2.698054351e-02f, -2.916879766e-02f, 1.079148769e+00f, -1.227999926e-01f, 3.105411306e-03f, -7.204084098e-02f, 5.557121709e-02f, -2.728311718e-01f,
  -1.074618846e-01f, -1.172587182e-02f, -5.369163677e-02f, -2.173161879e-02f, -2.551435865e-02f, -3.840461001e-02f, -6.305032875e-03f, -5.227795243e-02f,
  -1.878293306e-01f, -2.997208945e-02f, 6.048382074e-02f, 7.540436834e-02f, -1.835917681e-01f, -1.785072327e+00f, -1.803660035e+00f, -1.826612800e-01f,
  1.829477586e-02f, -2.800728381e-02f, -2.063317060e+00f, -2.043724775e+00f, 3.916673660e-01f, 6.911741942e-02f, 5.832742527e-02f, -1.633771211e-01f,
  4.904480875e-01f, 2.026448548e-01f, -9.881230071e-03f, 1.379199475e-01f, -3.948532045e-02f, 1.752757467e-02f, 3.431830555e-02f, 3.312906250e-02f,
  2.954701148e-02f, 3.720583767e-02f, -7.919492573e-02f, 8.637203835e-03f, 1.243211180e-01f, 2.885887958e-02f, -2.146051973e-01f, -5.259620547e-01f,
  -4.003488719e-01f, 3.809815273e-02f, -1.783798635e-01f, -5.306079984e-01f, -2.380684614e+00f, -1.404686451e+00f, -1.819553077e-01f, -2.897852100e-02f,
  -5.429065824e-01f, -1.621837974e+00f, -8.738795519e-01f, -9.070341289e-02f, 1.151527166e-01f, 9.616470896e-03f, -1.711844057e-01f, -1.408771724e-01f,
  6.328754872e-02f, 3.762782319e-03f, 4.737916868e-03f, -2.914332412e-02f, -1.557095535e-02f, 1.688837260e-02f, 2.291735634e-02f, 5.358699709e-02f,
  1.044564769e-01f, 7.123264670e-02f, 6.230547652e-02f, 8.968794346e-02f, -1.896710843e-01f, 3.909792602e-01f, 2.145827115e-01f, 1.166944276e-03f,
  1.222526934e-02f, 1.568092555e-01f, -1.584896594e-01f, -3.942003474e-02f, -1.367960870e-02f, -7.062171586e-03f, -5.273119360e-02f, -1.252709031e-01f,
  -5.595101789e-02f, 3.849541768e-02f, 1.801269315e-02f, 6.515870243e-02f, 5.781335384e-02f, 7.518982887e-02f, -1.255887793e-03f, -1.554634608e-02f,
  1.345917024e-02f, 3.687822958e-03f, -1.237874180e-01f, -7.584831864e-02f, -3.050906025e-02f, 2.260510176e-01f, -6.830765605e-01f, -8.095675707e-02f,
  -9.009272605e-02f, -6.335076876e-03f, 3.163243085e-02f, 2.164061517e-01f, 2.835094929e-02f, -1.996519789e-02f, 1.912736706e-02f, 5.376107618e-02f,
  -5.846804474e-03f, -2.856448665e-02f, 2.232760191e-03f, -1.074358225e-01f, -4.462061450e-02f, 9.963508695e-02f, -4.382684827e-02f, -7.526452839e-02f,
  4.015200213e-02f, 4.225294590e-01f, 4.155034125e-01f, 2.236326486e-01f, -2.475530840e-02f, 1.226066127e-01f, 1.055965662e+00f, 3.715772629e+00f,
  7.614480853e-01f, 1.097637787e-01f, -1.899346523e-02f, 3.043170869e-01f, 8.896865845e-01f, 4.404836595e-01f, 4.288249835e-02f, -6.164521724e-02f,
  -2.082871832e-02f, 8.952699602e-02f, 1.329081482e-03f, 1.858989708e-02f, -1.168279424e-01f, 5.107534118e-03f, -1.208265573e-01f, 6.690426171e-02f,
  -1.782813817e-01f, 7.911073416e-02f, 1.537905782e-01f, 7.183665037e-01f, 2.820352018e-01f, -6.358251721e-02f, 5.068832543e-03f, 9.210421443e-01f,
  -3.243839264e+00f, 6.083908081e-01f, -7.847330719e-02f, -5.623346567e-02f, 2.837765813e-01f, 6.662896276e-01f, 4.222716987e-01f, -1.347818505e-02f,
  -9.101178497e-02f, -6.014095619e-02f, 7.159191370e-02f, 8.313896507e-02f, -1.001157537e-01f, 1.091076154e-02f, 3.432513028e-02f, -3.541399539e-02f,
  8.718768507e-02f, 1.833542995e-02f, -5.096756294e-02f, 2.645220757e-01f, -3.687297180e-02f, 2.623618245e-01f, 6.836921093e-04f, -5.726752430e-02f,
  -4.038430750e-01f, 1.865344286e+00f, 4.991655424e-02f, 1.060604081e-01f, -6.838987023e-02f, -4.180100560e-01f, -1.053476930e+00f, 8.901435137e-02f,
  9.388887882e-02f, 5.984470993e-02f, 7.166348398e-02f, 4.018296301e-02f, 1.413251162e-01f, 7.462742180e-02f, -5.519959331e-02f, -1.181088910e-01f,
  -6.870183349e-02f, -1.024822332e-02f, -1.591601670e-01f, 8.061810583e-02f, 4.252554104e-02f, -5.013096929e-01f, -6.857194304e-01f, -2.187558822e-02f,
  5.458037183e-02f, -1.286056042e-01f, 8.984330297e-01f, -7.558960319e-01f, 7.338215411e-02f, 5.080483481e-02f, 1.200335547e-01f, 3.403904736e-01f,
  1.821211278e-01f, 1.124987029e-03f, 3.365500644e-02f, 1.548565924e-03f, -9.737065434e-02f, -9.920408018e-03f, 3.714019805e-02f, 7.083064318e-02f,
  5.925505236e-02f, 1.348626334e-02f, 1.741031371e-02f, 7.065240294e-02f, -2.284684777e-02f, -1.561672539e-01f, -5.044037849e-02f, -7.970565557e-02f,
  1.568711847e-01f, -1.920481622e-01f, -6.906078458e-01f, 1.516439795e+00f, -2.270139307e-01f, -6.639514863e-02f, -2.672894113e-02f, -2.096159011e-01f,
  -6.074141860e-01f, -3.819239438e-01f, -4.167987406e-02f, 5.313241482e-02f, 5.940851197e-02f, -2.294949144e-01f, -4.540822469e-03f, -1.306622662e-02f,
  4.413556680e-02f, -2.056708746e-02f, 8.078032732e-02f, -3.728399798e-02f, 3.055649064e-02f, 1.608632132e-02f, 1.597132385e-01f, 4.783023894e-01f,
  -7.377964258e-02f, 9.333044291e-02f, 1.154411361e-01f, 3.668748736e-01f, -1.584847331e+00f, 1.911662817e-01f, 7.353880256e-02f, 1.845278405e-02f,
  6.448316853e-03f, -1.483914703e-01f, -1.344208121e-01f, -7.509075105e-03f, 6.120774895e-02f, 1.060300469e-01f, 6.979590654e-02f, 2.946549468e-02f,
  6.981099397e-02f, -8.840570226e-03f, -6.512819976e-02f, 1.011187676e-02f, -2.870743535e-02f, -2.593539469e-02f, 2.574964240e-02f, -8.738874644e-02f,
  -3.375414014e-01f, -3.065032652e-03f, 2.045789734e-02f, 2.176061273e-02f, 3.149842918e-01f, 2.845123708e-01f, 1.084224600e-02f, 2.331515215e-02f,
  6.120963488e-03f, 2.038597614e-01f, 6.600888371e-01f, 4.431739077e-02f, -3.049387410e-02f, -5.984560587e-03f, -1.968020014e-02f, 2.542881481e-02f,
  -7.915906608e-03f, -9.470339864e-03f, -4.105811194e-02f, 8.463155478e-03f, 3.310447559e-02f, -2.498140000e-02f, -1.247647963e-02f, -7.628578693e-02f,
  -4.897510260e-02f, 9.691625088e-02f, -2.110302448e-03f, -5.099998787e-02f, -2.142223716e-02f, -1.867396086e-01f, -1.162522361e-01f, 2.206125297e-02f,
  -5.589724705e-02f, -7.387748361e-02f, -3.371514007e-02f, -1.929064691e-01f, -1.453602761e-01f, -2.761556022e-02f, -2.295864932e-02f, -2.735056356e-02f,
  -2.252245089e-03f, -4.597837105e-02f, -9.624707513e-03f, -4.402732477e-02f, -5.343401432e-02f, 4.853203893e-02f, 1.517136395e-02f, -1.112361904e-02f,
  -6.223997474e-02f, -1.744564027e-01f, 5.153617263e-01f, 2.006436884e-02f, -4.856183752e-02f, 6.036443636e-02f, 3.413720131e-01f, -1.578523874e+00f,
  9.099968523e-02f, 6.111388281e-02f, 1.350840181e-02f, 3.939812630e-02f, 3.308183551e-01f, 7.466083020e-02f, -7.574839983e-03f, -1.134100277e-02f,
  -4.749144241e-02f, 2.260006033e-02f, -1.191527676e-02f, -1.256332733e-02f, -9.694516659e-02f, 8.479883522e-02f, -4.269609973e-02f, 1.371003836e-01f,
  1.285221614e-02f, -1.261335909e-01f, -2.484607249e-01f, 4.763245285e-01f, 7.036223412e-01f, -4.133165479e-01f, -4.100769162e-01f, 1.507384419e+00f,
  2.800699949e+00f, -1.670699716e+00f, -2.380016893e-01f, 9.928448498e-02f, 6.092198566e-02f, 4.682860374e-01f, 2.151392698e-01f, 2.737462893e-02f,
  -1.713626832e-01f, -4.492593408e-01f, -3.697877824e-01f, -4.900213182e-01f, -4.998036921e-01f, -3.244758770e-02f, 3.101310730e-01f, -2.406309173e-02f,
  -4.385942128e-03f, 1.859523952e-01f, -8.007621765e-02f, -4.473823607e-01f, -1.937622875e-01f, 1.343077701e-02f, -1.405348163e-02f, -7.378251106e-02f,
  4.377528131e-01f, -2.561670840e-01f, 6.978983283e-01f, -3.193276525e-01f, -2.282865159e-02f, 4.361170232e-01f, 1.204454899e+00f, -1.369230747e-01f,
  5.797761679e-02f, 2.176433057e-01f, 4.918715954e-01f, 1.725259721e-01f, 7.220018189e-03f, 2.737080157e-01f, 2.198217362e-01f, 1.486053169e-01f,
  -1.861827821e-01f, 2.009299099e-01f, 4.063207209e-01f, 1.706532091e-01f, 7.209473848e-02f, 1.304340363e+00f, 1.893685222e+00f, 3.540163338e-01f,
  6.614682078e-02f, 1.002558470e+00f, -1.003659248e+01f, 1.018126845e+00f, 2.463769168e-01f, 1.793726236e-01f, 4.543650746e-01f, 1.573410869e+00f,
  2.944391370e-01f, 2.435812950e-01f, 2.106902190e-02f, 1.222833917e-01f, 3.348910809e-02f, -4.913160950e-02f, -2.016330808e-01f, 9.232389741e-03f,
  -1.831254065e-01f, -4.619408548e-01f, -6.104945019e-02f, 2.580199204e-02f, 2.007362396e-01f, -6.037604213e-01f, -1.352886677e+00f, -6.744412184e-01f,
  -2.199404091e-01f, -1.282676011e-01f, 3.473220825e+00f, -2.407804579e-01f, -7.695748210e-01f, -3.708346486e-01f, -2.089976817e-01f, -4.563133419e-01f,
  -1.201331735e+00f, -6.797974557e-02f, 1.900106668e-01f, -1.049756929e-01f, 1.467049420e-01f, 1.974129677e-02f, -1.189163253e-01f, 1.353938878e-01f,
  -2.783416212e-02f, 1.137732789e-01f, 1.923765056e-02f, -4.196252674e-02f, -5.119034052e-01f, -3.728712499e-01f, 3.186543286e-01f, 8.755044639e-02f,
  5.801243708e-02f, -3.266549706e-01f, 4.068172872e-01f, -4.633924365e-02f, -1.957556605e-01f, 3.100239933e-01f, -1.353512883e+00f, 3.305352926e-01f,
  1.604682684e+00f, 6.444532871e-01f, -1.946103871e-01f, -2.456277311e-01f, -2.231144905e-01f, 2.865176499e-01f, 4.393979907e-01f, -1.269525766e+00f,
  -4.721249640e-02f, -4.751568288e-02f, -1.317236200e-02f, 2.091324143e-02f, -2.103584632e-02f, 2.531483769e-03f, -6.323184073e-02f, -6.154137105e-02f,
  -5.385643989e-02f, -5.260462314e-02f, -8.890430629e-02f, -6.525547802e-02f, -5.804157257e-02f, 7.254251838e-02f, -5.262375623e-02f, 2.302420512e-02f,
  -8.151222020e-02f, -3.692125529e-02f, 2.454845011e-01f, 2.610107958e-01f, 2.549238801e-01f, 1.555243731e-01f, 1.693246514e-01f, 1.827808022e-01f,
  1.563945413e-01f, 1.392185241e-01f, 1.457672268e-01f, -6.059343368e-02f, -5.295575410e-02f, 6.763976067e-03f, -3.111119568e-02f, -2.777741477e-02f,
  -6.608386338e-02f, 3.125512972e-03f, -4.528542235e-02f, -3.084191680e-02f, 2.539960146e-01f, 3.047318757e-01f, 3.012408018e-01f, 2.643355131e-01f,
  4.430360198e-01f, 2.361237705e-01f, 2.305141389e-01f, 2.476761341e-01f, 2.911016047e-01f, -1.194872707e-01f, 4.798007756e-02f, -2.015379667e-01f,
  -1.378034204e-01f, -4.123439193e-01f, -8.583622426e-02f, -1.953562349e-01f, -9.020310640e-02f, -2.518764734e-01f, 1.269752979e-01f, 2.060373425e-01f,
  9.352336824e-02f, -2.400372364e-02f, 4.197469354e-01f, -4.066542536e-02f, 1.404383034e-01f, 2.097338140e-01f, 2.214749604e-01f, -1.048942879e-01f,
  -1.480494887e-01f, -1.612081528e-01f, -1.199399158e-01f, 4.555102438e-02f, 1.923136860e-01f, -1.059694886e-01f, -2.087163925e-02f, 2.384611219e-02f,
  -7.014542818e-02f, -2.773487754e-02f, -5.235246941e-02f, -9.144926071e-02f, -1.612398922e-01f, -1.928205043e-01f, -2.479469590e-02f, -2.398594469e-01f,
  -3.756372258e-03f, -1.038213000e-01f, 3.200959414e-03f, 2.339059114e-02f, 1.272510588e-01f, -1.204435676e-01f, 7.343277335e-02f, -1.138503700e-01f,
  2.680745721e-02f, -5.814391375e-02f, 4.643168300e-02f, 2.358632386e-01f, 2.613257989e-02f, 5.314187706e-02f, 1.245336086e-01f, -1.547087431e-01f,
  -1.679270528e-03f, -1.054975390e-02f, -1.575420648e-01f, -2.755217999e-02f, -1.182288118e-02f, -4.573523998e-03f, -7.966138422e-03f, -1.343526244e-01f,
  2.741025388e-02f, 2.118827216e-02f, -1.996485516e-02f, -2.495358139e-02f, -2.868324816e-01f, 1.983827353e+00f, -1.355036259e+00f, 2.157863140e+00f,
  -3.363372326e+00f, -6.295028329e-01f, 2.423832119e-01f, 1.005852938e+00f, 3.302837908e-01f, -8.526778221e-01f, -2.701579094e+00f, -1.588810205e+00f,
  2.755433559e+00f, -2.436958313e+00f, 3.303353786e+00f, -2.330947876e+00f, 1.685071886e-01f, 2.333513021e+00f, 1.615152121e+00f, -5.688763142e+00f,
  -5.281335115e-02f, 1.417691708e+00f, -8.715922356e+00f, -3.801805019e+00f, 7.031928062e+00f, 5.856980324e+00f, 2.648766279e+00f, 1.140165448e+00f,
  -3.484905064e-01f, 2.306752682e+00f, -3.356187820e+00f, -1.005861282e+00f, -9.985075146e-02f, -2.500391006e-01f, 6.765707135e-01f, 3.621139050e+00f,
  1.342302084e+00f, 1.663009286e+00f, 1.106879234e+00f, 3.955339432e+00f, 6.208429337e+00f, -3.186654806e+00f, 4.815606773e-01f, -6.599079132e+00f,
  -4.290183067e+00f, 3.657277822e-01f, 3.003952026e+00f, -1.277821511e-02f, 3.678686023e-01f, -1.403098106e+00f, 7.124772072e-01f, -1.310663223e+00f,
  -4.841120243e-01f, -2.547263801e-01f, -7.572291791e-02f, -1.978462934e-01f, 1.104159117e+00f, 8.582586050e-01f, 8.669564724e-01f, 9.651686549e-01f,
  -6.859237552e-01f, -1.668521285e+00f, 4.246912599e-01f, -8.958292007e-01f, -1.551522017e+00f, 9.455684423e-01f, 6.674486995e-01f, -1.124671459e+00f,
  2.304376364e+00f, -2.026297569e+00f, 2.284169197e-01f, 1.423579216e+00f, 3.668239117e-01f, 2.521982789e-01f, 2.667664886e-01f, -2.366353989e+00f,
  -2.179633856e+00f, -1.893574715e+00f, 2.212013960e+00f, 2.167242050e+00f, 8.050194979e-01f, 9.055120945e-01f, -2.982436657e+00f, -1.368657351e+00f,
  5.300599098e+00f, -4.409824610e-01f, 3.567631721e+00f, -7.286068201e-01f, -4.488430023e+00f, -1.168386936e+00f, -4.410490394e-01f, 6.780863404e-01f,
  -6.362976432e-01f, -1.460829973e+00f, -8.199873567e-02f, 5.075272173e-02f, 7.860432863e-01f, 2.030618668e+00f, -1.064184234e-01f, -3.818147629e-02f,
  -1.882895380e-01f, -7.111083269e-01f, -6.646468163e+00f, 1.220487714e+00f, 6.886022568e+00f, 4.152018130e-01f, -2.547366619e+00f, 3.979696631e-01f,
  -1.557325363e+00f, 6.083941460e-01f, 5.724570155e-02f, 1.044990063e+00f, -4.094233513e-01f, -9.786760211e-01f, 1.073622227e+00f, -8.870515823e-01f,
  6.692844033e-01f, -1.244489700e-01f, -4.427015781e-01f, -5.955958962e-01f, 2.052261829e+00f, -3.316267490e+00f, 1.889080286e+00f, -9.086629152e-01f,
  -7.505590320e-01f, 6.281556487e-01f, 1.087493181e+00f, -2.098473072e+00f, 7.012937963e-02f, 1.333855867e+00f, -1.193027020e+00f, -1.235258818e+00f,
  2.106021643e+00f, 2.794977665e+00f, 3.992642462e-01f, 1.245998025e+00f, 8.975019455e-01f, 2.185294628e+00f, -1.544227123e+00f, 4.295927882e-01f,
  -2.658890724e+00f, -8.534423113e-01f, -2.068429947e+00f, 1.770766616e+00f, -9.772211313e-01f, 1.008703232e+00f, -3.304081857e-01f, 2.944913626e+00f,
  7.939216137e+00f, 6.028257608e-01f, -2.491351604e+00f, -4.126996994e+00f, -3.697268724e+00f, 4.257121682e-01f, 4.376037121e+00f, 2.122563422e-01f,
  -3.190346062e-02f, 4.744292498e-01f, 6.804889441e-02f, -2.249209166e+00f, -1.990468264e+00f, -2.072766304e+00f, 1.145525649e-01f, 6.961415708e-02f,
  9.116064310e-01f, 3.523067236e-01f, 1.355258375e-01f, -1.940616071e-01f, 2.906650305e-01f, -6.893008351e-01f, 6.651793718e-01f, 1.391142368e+00f,
  7.819926143e-01f, -2.518856525e-02f, 3.977031112e-01f, -1.469806433e+00f, -8.794308901e-01f, -3.903089762e-01f, 1.272445917e-02f, -4.234454036e-01f,
  -4.543706775e-01f, -8.561687469e-01f, 4.662035406e-01f, -1.590525985e+00f, -1.718214512e+00f, -1.005736291e-01f, 1.318612456e+00f, 2.417706251e+00f,
  1.641570330e+00f, 5.011633039e-02f, -1.561074108e-01f, -3.536724150e-01f, 1.435670376e+00f, -7.432169914e-01f, 2.790971994e-01f, 2.228943855e-01f,
  -1.329866290e+00f, 9.117634892e-01f, -1.564185470e-01f, 1.287363768e+00f, 2.235390693e-01f, -1.800041318e+00f, -1.012824655e+00f, 9.604309797e-01f,
  2.430344522e-01f, 1.303650856e+00f, -1.935073137e-01f, 1.630009264e-01f, -1.631277651e-01f, -3.125155926e+00f, -1.077514887e+00f, 3.210558891e-01f,
  6.903814793e+00f, 2.148681641e+00f, -1.965104938e+00f, -2.387335777e+00f, 1.108985096e-01f, 1.308332291e-02f, -2.295973152e-02f, 5.111480877e-02f,
  2.423535287e-02f, 6.270474195e-02f, 4.553248361e-02f, 1.762703434e-02f, 1.165503263e-02f, 3.269426227e-01f, 5.734836459e-01f, 2.705374360e-01f,
  -2.940383554e-01f, -8.008630574e-02f, -1.133539900e-01f, -5.597001687e-02f, 2.122339606e-01f, 1.269144118e-01f, -4.475267231e-01f, -4.033791423e-01f,
  -3.369844556e-01f, -2.591172159e-01f, -1.756372750e-01f, -9.881578386e-02f, -2.515333295e-01f, 1.425727159e-01f, 6.362320483e-02f, 1.709936261e-01f,
  1.495403945e-01f, -1.210529730e-01f, -1.232125610e-01f, -4.006448388e-02f, -2.801390179e-02f, -3.588120267e-02f, 5.525803939e-02f, -5.311612785e-02f,
  -7.704332471e-01f, -6.847920418e-01f, -6.137551665e-01f, -3.524952233e-01f, 2.681821585e-03f, -9.158586711e-02f, -6.087792516e-01f, -2.285056561e-02f,
  -9.664579481e-02f, 2.463647872e-01f, 2.535678446e-01f, 3.567805886e-01f, 1.503958702e-01f, 3.190788031e-01f, 1.274757460e-02f, 1.002753824e-01f,
  2.965328470e-02f, 1.308142841e-01f, 8.536625654e-02f, -4.046914726e-02f, 4.431526363e-02f, -1.749828756e-01f, -1.642169058e-01f, -6.218812615e-02f,
  -3.494793922e-02f, -3.040805459e-01f, -1.488052309e-01f, 6.263259649e-01f, 4.198040068e-01f, 2.845370770e-01f, 1.471518874e-01f, 1.663897485e-01f,
  -1.037091166e-01f, 2.770598531e-01f, 2.967325412e-02f, -2.456257120e-03f, -5.441522226e-02f, -1.380479634e-01f, -1.731825322e-01f, 2.954810858e-02f,
  -3.587998152e-01f, -1.645532399e-01f, -2.471523136e-01f, -3.847225606e-01f, -1.976327598e-01f, 8.612233400e-02f, 9.300141037e-02f, -8.926199749e-03f,
  -1.505883932e-01f, -5.514034629e-01f, -2.615967691e-01f, 1.405787021e-01f, 2.650108188e-02f, 5.944321305e-02f, -4.902191460e-03f, -1.101723313e-01f,
  -1.470895205e-02f, 7.346033305e-02f, 6.174444556e-01f, 1.274180263e-01f, -3.023400344e-02f, -4.707796127e-02f, 6.902731210e-02f, 8.073791116e-02f,
  2.558309138e-01f, 1.637646556e-01f, 4.770358652e-02f, 1.727891713e-02f, 1.621677876e-01f, 1.546962857e-01f, 1.237632260e-01f, 7.608853281e-03f,
  4.142155126e-02f, 1.745023765e-02f, -7.139952481e-02f, -1.478505880e-02f, -3.959976137e-02f, -3.822933882e-02f, -6.158882380e-02f, -4.626595974e-02f,
  1.741533726e-02f, 5.234783888e-02f, -4.498456046e-02f, -1.593203843e-01f, -2.548629642e-01f, -5.467161536e-04f, -4.552193880e-01f, -1.187859029e-01f,
  -7.137421519e-02f, -1.806079298e-01f, -2.313648462e-01f, 2.311107665e-01f, 3.025669158e-01f, -7.608558983e-02f, 3.522370458e-01f, 3.196035028e-01f,
  1.169167608e-01f, 3.039611876e-01f, 1.733694822e-01f, -2.413537726e-02f, -5.724177510e-02f, -1.136013679e-02f, -1.009559631e-01f, 5.220308900e-03f,
  -8.751901239e-02f, -4.882648215e-02f, -6.004218012e-04f, -1.845372841e-02f, -1.848841012e-01f, -1.443984956e-01f, -1.507514417e-01f, -4.800848663e-02f,
  -2.568880320e-01f, -1.439483017e-01f, -1.045710444e-01f, -7.800273597e-02f, -1.397588998e-01f, 3.610016406e-01f, 6.364696026e-01f, 2.619172931e-01f,
  2.781699300e-01f, 8.998972178e-01f, 1.638339758e-01f, 5.669572949e-02f, -2.490470409e-01f, 1.457494199e-01f, 1.258337684e-02f, 5.908200890e-02f,
  -5.969146639e-02f, -2.767112553e-01f, -5.207414925e-02f, -2.734372616e-01f, -2.804893851e-01f, -4.930120409e-01f, -3.762232065e-01f, -8.796278834e-01f,
  -6.788265109e-01f, -9.554281831e-01f, -6.671406627e-01f, -3.814744353e-01f, -4.313489199e-01f, -8.526935577e-01f, -6.479939818e-01f, -9.491988271e-02f,
  -6.040146947e-02f, -1.021492332e-01f, -5.683055520e-01f, -1.021055818e+00f, -1.375384808e+00f, -1.496109486e+00f, -6.010299325e-01f, -7.679082155e-01f,
  -5.193270445e-01f, 4.950016737e-03f, 9.140897542e-03f, 2.646823600e-02f, 2.609768510e-01f, 7.476423383e-01f, -8.232470602e-03f, 8.811890334e-02f,
  1.528688967e-01f, 1.080197096e-01f, 3.795418888e-02f, 8.498457074e-02f, 4.030168056e-03f, 6.307800114e-02f, 5.516012907e-01f, -9.418866038e-02f,
  1.506082416e-01f, 1.262240857e-02f, 5.235974491e-02f, -1.763015985e-02f, 3.241884708e-02f, 4.606027156e-03f, -9.656952322e-02f, 7.336923480e-02f,
  6.670504808e-04f, -2.224854007e-02f, 1.743494347e-02f, -2.374722809e-02f, 3.621581793e-01f, -1.320723295e+00f, 2.690001488e+00f, 3.819293380e-01f,
  8.926531076e-01f, -1.258069277e+00f, -1.049182415e+00f, -2.887831926e-01f, -4.552859306e+00f, 2.087636709e+00f, -6.483126283e-01f, 1.177883863e+00f,
  -2.629858255e-01f, 9.562453628e-02f, -2.471568108e+00f, 1.972637653e+00f, -7.833642364e-01f, -1.219404459e+00f, 6.940613389e-01f, 2.124582291e+00f,
  6.517918706e-01f, 8.669707179e-01f, -2.254116297e+00f, 1.683288336e+00f, -5.617588758e-01f, -2.521729231e+00f, -2.338674366e-01f, 1.890687108e+00f,
  1.653407693e+00f, -1.280308068e-01f, 3.032439709e+00f, -8.982926011e-01f, -1.127098322e+00f, 6.509082019e-02f, -1.158723354e+00f, -5.664646149e+00f,
  1.728885412e+00f, 4.896330237e-01f, 1.521910191e+00f, -3.037694454e+00f, -1.001365662e+01f, -8.880591393e-01f, 2.682660103e+00f, 3.309840441e+00f,
  4.390720844e+00f, -1.012866259e+00f, -4.688076973e+00f, -1.034613848e+00f, 9.546858072e-01f, 1.667225480e+00f, 4.407620728e-01f, 2.173122406e+00f,
  1.189454556e+00f, 7.002583146e-01f, 6.226240396e-01f, 5.710919201e-02f, -8.670259118e-01f, 1.277190745e-01f, -3.629088402e-03f, -8.668353558e-01f,
  4.012104273e-01f, 5.396252871e-01f, -1.709467053e+00f, -3.149606228e+00f, -5.328221321e-01f, -5.843148828e-01f, -1.300712585e+00f, 3.867338657e+00f,
  2.916480064e+00f, -4.655273557e-01f, 4.236173630e-01f, 9.249843359e-01f, 1.194464207e+00f, 1.692651033e+00f, -2.762821317e-01f, 2.421074390e+00f,
  9.913014174e-01f, 2.980651855e-01f, -1.555622101e+00f, -3.137531519e+00f, -2.182860613e+00f, -5.092830062e-01f, -1.002321720e+00f, 2.636979222e-01f,
  -1.733539820e+00f, 2.339204550e+00f, -5.829348564e-01f, 1.457309276e-01f, 2.591846466e+00f, -1.416729927e+00f, -1.163210511e+00f, -1.786553979e+00f,
  -7.227335125e-03f, 1.228176594e+00f, 5.038211346e-01f, -7.833967358e-02f, -6.039631367e-01f, -5.812842846e-01f, 8.829018474e-01f, -5.220299214e-02f,
  -1.828784943e-01f, 3.704553604e+00f, 3.432896376e+00f, -2.802428007e+00f, -9.683821678e+00f, -1.350681782e-01f, 3.176185846e+00f, 1.623220921e+00f,
  -3.978164867e-03f, 2.464736253e-02f, -2.466141805e-02f, -2.243659049e-01f, -6.054075062e-02f, -1.744676530e-01f, -1.187822595e-02f, 5.991239473e-02f,
  -3.368236870e-02f, 4.834025726e-02f, -1.791433841e-01f, 6.530831754e-02f, -2.637257800e-02f, 2.694735304e-02f, 6.599742919e-04f, 1.145173386e-01f,
  -3.857210279e-01f, -1.724187732e-01f, -2.392230928e-02f, -3.108566999e-01f, -9.161855280e-02f, 3.215218708e-02f, -3.694040179e-01f, -2.818297595e-03f,
  -4.789667130e-01f, -2.183103263e-01f, -2.034543753e-01f, -8.845274150e-02f, -9.614051878e-02f, -6.966266781e-03f, 1.056871787e-01f, -1.642242670e-01f,
  1.861616373e-01f, -6.019219756e-02f, -1.698611528e-01f, -6.247197092e-02f, 1.680360585e-01f, 1.768129468e-01f, 6.815171242e-02f, -4.718505591e-02f,
  -1.945395470e-01f, 9.105184674e-02f, 9.172926843e-02f, 6.811095029e-02f, 6.992051005e-02f, -7.820951194e-02f, -4.396695644e-02f, -6.336630881e-02f,
  -1.339340024e-02f, 1.449741125e-01f, -1.760361493e-01f, 1.258635521e-01f, 4.411574006e-01f, -1.394192688e-02f, -4.178556055e-02f, -2.809440717e-02f,
  -8.307185769e-02f, -8.640705049e-02f, 3.235355020e-01f, -6.410516798e-02f, 1.089174747e-01f, 1.460189968e-01f, 1.193251908e-01f, 3.556824625e-01f,
  1.963065863e-01f, 1.750226468e-01f, 1.961029880e-02f, -4.788453579e-01f, -1.718093455e-01f, 1.780645251e-01f, -1.777008623e-01f, -2.041232288e-01f,
  -1.274356693e-01f, 3.269608319e-02f, 1.235746965e-01f, -5.012336969e-01f, -1.426834226e+00f, -2.034540772e-01f, -9.148150682e-02f, -1.721692085e-01f,
  6.446143985e-02f, -4.782006145e-02f, -1.257707775e-01f, 1.038673520e-01f, 4.682752118e-02f, -3.241190910e-01f, -7.234506309e-02f, 2.369130105e-01f,
  3.611503839e-01f, 2.826941311e-01f, 1.237233058e-01f, 8.811140805e-02f, 1.348890066e-01f, 3.078223467e-01f, 9.070256948e-01f, 1.330390275e-01f,
  -9.435171261e-03f, 2.078861445e-01f, 9.782962501e-02f, -6.303508580e-02f, 5.546508729e-02f, -4.349455237e-02f, 4.840335622e-02f, 5.451487750e-02f,
  -1.497772038e-01f, -6.415401399e-02f, 3.353917971e-02f, -9.446430951e-02f, -2.068548650e-02f, -4.450253397e-02f, -1.837687753e-02f, 9.561994672e-02f,
  -1.140632927e-01f, 5.611541122e-02f, 2.060809545e-02f, -7.564638555e-02f, 8.196342736e-03f, 4.310900718e-02f, 1.420917809e-01f, -3.388227150e-02f,
  1.715585962e-02f, 3.342129588e-01f, 9.176392853e-02f, -3.690756857e-04f, 1.630615592e-01f, 1.110139340e-01f, 2.221897244e-02f, 4.330530018e-02f,
  7.774838805e-02f, 1.646075770e-02f, 1.600566059e-01f, 1.310364902e-01f, 5.837538093e-02f, 8.341328800e-02f, 1.094044074e-01f, -2.591897547e-02f,
  8.764015138e-02f, 5.955224484e-02f, -1.826293766e-02f, -1.785167009e-01f, -8.142863214e-02f, 1.968118921e-02f, 6.973703206e-02f, 3.956410289e-02f,
  4.766307771e-03f, 8.161298931e-03f, -2.521201968e-04f, 6.742924452e-04f, 1.455068290e-01f, 7.242105156e-02f, 1.548144221e-02f, -3.859100863e-02f,
  -2.748927474e-02f, 5.750824139e-02f, -2.351571918e-01f, 6.434273720e-02f, -2.083158791e-01f, 4.383400083e-01f, 9.658704698e-02f, -1.194822341e-01f,
  -1.079073995e-01f, -2.693708539e-01f, 2.478794008e-01f, 3.750406504e-01f, 2.202996612e-01f, 2.318552732e-01f, 1.155738831e+00f, 2.862799764e-01f,
  1.016316339e-01f, 3.033754416e-02f, 2.967034280e-02f, 6.571218371e-03f, 5.501069129e-03f, -6.173643470e-02f, 2.484428138e-02f, -5.240528286e-02f,
  -9.642411023e-03f, -5.029211566e-02f, -1.247877628e-01f, 9.829834104e-03f, -6.077805907e-02f, 1.128094494e-01f, -3.550323844e-02f, 6.942740083e-02f,
  7.885190845e-01f, 3.927106261e-01f, -1.045914665e-01f, -6.683342159e-02f, -8.904832602e-02f, 3.157421574e-02f, 2.389582805e-02f, -1.727060974e-02f,
  -9.718871862e-02f, 1.367128491e-01f, 4.636624828e-02f, -1.884595677e-02f, 3.393827379e-02f, -1.484131664e-01f, 7.127337158e-04f, 7.001522183e-02f,
  7.947723567e-02f, 2.008927613e-02f, 1.822604179e+00f, 4.051751792e-01f, 7.557506859e-02f, 2.228199542e-01f, 2.148951441e-01f, 4.617250524e-03f,
  6.012285128e-03f, 2.975620329e-03f, 2.532055229e-02f, 9.369912744e-02f, 1.083600968e-01f, 1.587090641e-02f, 1.858693361e-02f, 4.003416747e-02f,
  -4.520066455e-02f, -1.288841479e-02f, 1.460465416e-02f, -1.279221028e-01f, -6.965456903e-02f, 5.186960474e-02f, -3.570257872e-02f, -5.015906692e-02f,
  8.240847848e-03f, -6.438349187e-02f, -1.480028331e-01f, 4.075173289e-02f, 2.918236852e-01f, -4.966673851e-01f, 1.486627460e-01f, 4.444558918e-02f,
  1.355536580e-01f, -4.716407135e-02f, 3.363884985e-03f, -8.055001497e-02f, 5.135246366e-02f, 3.233144432e-02f, -4.933397472e-02f, 1.071818620e-01f,
  6.468334049e-02f, 6.407835335e-02f, 6.351600587e-02f, -3.869856149e-02f, 3.950253874e-02f, -1.708815247e-02f, 2.153275460e-01f, 3.735958636e-01f,
  4.468919337e-02f, 6.773051620e-02f, 5.601355806e-03f, 7.665622979e-05f, 8.393132687e-02f, -2.537151873e-01f, 5.859452486e-02f, -1.927133799e-01f,
  3.264984190e-01f, -2.010735273e-01f, 7.356176525e-02f, -3.258225322e-02f, 6.500839442e-02f, 5.087567493e-02f, -2.969899476e-01f, -1.822436973e-02f,
  -1.441663355e-01f, -1.175395727e+00f, -1.174792647e-03f, 2.568740025e-02f, -1.025727242e-01f, -1.435966790e-02f, -2.073501945e-01f, -3.076696023e-02f,
  -4.846789688e-02f, -1.254871488e-01f, -9.921506643e-01f, 3.252430260e-02f, -1.428399086e-01f, -5.359257013e-02f, -4.042512178e-02f, -3.146497607e-01f,
  -6.021686271e-02f, -2.010243088e-01f, 2.690733038e-02f, 3.493537307e-01f, 1.217946410e-02f, -1.255058944e-01f, 3.161359578e-02f, -3.582735732e-02f,
  1.473744214e-02f, 8.539403975e-02f, 1.861380413e-03f, 7.063129544e-02f, 5.487753749e-01f, 8.543049544e-02f, -5.460810289e-02f, 5.699294433e-02f,
  -1.050312445e-01f, -1.056097224e-01f, -1.541310549e-01f, 3.436641395e-02f, -5.076916814e-01f, -4.004080296e-01f, 2.667415738e-01f, -1.522762179e-01f,
  -2.104201540e-02f, 3.604694270e-03f, 1.629739851e-01f, -3.904321045e-02f, -3.843674064e-02f, 1.174982041e-01f, -2.026353359e+00f, -3.166176975e-01f,
  2.276468128e-01f, 6.801146269e-02f, -2.093492076e-04f, 1.193160098e-02f, -1.504331380e-01f, -2.224408649e-02f, 3.419274092e-02f, -2.035446614e-01f,
  7.478456944e-03f, -8.755832911e-03f, -4.256837070e-02f, -4.109106958e-03f, 6.691286713e-02f, 2.016531490e-02f, 8.198058605e-02f, -4.473917186e-02f,
  -1.997559965e-01f, -8.126520552e-03f, 3.055924922e-02f, -4.193810746e-03f, 2.676378936e-02f, -7.187902927e-03f, 8.832065761e-02f, 1.196638793e-01f,
  9.940998256e-02f, 1.189100295e-01f, 2.456665188e-01f, -1.104380004e-03f, -6.098123267e-02f, 5.237613618e-02f, 1.556505822e-02f, -2.476296574e-02f,
  2.085985243e-02f, 4.091665894e-02f, 6.242059171e-02f, 8.613434434e-02f, -2.943703532e-02f, -1.516458392e-02f, 1.502715051e-03f, 3.109903261e-02f,
  -4.113615677e-02f, -5.423590541e-02f, -3.047398478e-02f, -1.450711191e-01f, -6.968796253e-02f, 3.287222609e-02f, -4.079137743e-02f, -7.905680686e-04f,
  -2.217056975e-02f, 3.460467607e-02f, -3.007505648e-02f, -5.044704303e-03f, -4.671399295e-02f, 3.474883735e-02f, 8.750258014e-03f, 6.294846535e-03f,
  -4.617430270e-03f, -1.279800683e-01f, -9.885410964e-02f, -2.996367216e-01f, 1.639586687e-02f, -5.302077532e-01f, -1.810218692e-01f, 1.027045399e-01f,
  7.478658110e-03f, -6.367261708e-02f, -2.502001524e-01f, -2.561707497e-01f, -3.405857086e-01f, 4.628522322e-02f, -8.731118590e-02f, -5.733955652e-02f,
  -4.394534230e-02f, 1.583867371e-01f, -9.566409886e-02f, 2.088883892e-03f, -1.386651248e-01f, 4.043588042e-02f, -7.185883820e-02f, -1.478618085e-01f,
  -1.401675344e-01f, -1.097169146e-02f, -1.080147028e-01f, -1.002791524e-02f, 1.455836594e-01f, 8.873876929e-02f, 1.701484919e-01f, 1.248410717e-01f,
  -3.307933807e-01f, -5.249946192e-02f, -2.998506837e-02f, -1.640635133e-01f, -1.378694549e-02f, -2.585877292e-02f, 8.874526620e-02f, 2.352636307e-03f,
  -2.231726050e-01f, -7.405103445e-01f, -1.575438380e-01f, 1.480057687e-01f, 3.522815704e-01f, 1.800512075e-01f, 1.444982290e-01f, 1.962423325e-02f,
  -3.674896061e-02f, 1.706631929e-01f, -9.902638197e-01f, -1.973851919e-01f, 6.131693721e-03f, -2.055488527e-01f, -6.959512830e-02f, -2.952956781e-02f,
  -8.122378960e-03f, -3.318254650e-02f, 2.209464833e-02f, 7.586351037e-02f, -5.748671293e-02f, -2.595478669e-02f, 7.181659341e-03f, -2.531446517e-02f,
  -1.784531213e-02f, 2.054253593e-02f, -2.079233527e-04f, -3.023215011e-02f, -5.204999447e-02f, 2.384882048e-02f, -1.654564217e-02f, -2.919431776e-03f,
  2.626061440e-03f, 2.810980193e-02f, 2.767328173e-02f, 4.611325450e-03f, -6.778059900e-02f, 8.951440454e-03f, -6.136045232e-02f, -8.284975588e-02f,
  -4.807311296e-02f, -7.959526777e-02f, 1.069472730e-02f, 8.950507268e-03f, -1.559309661e-02f, -1.877060533e-02f, -1.169613004e-02f, -2.557402104e-02f,
  -4.253777862e-02f, -1.204827800e-02f, -4.001831263e-02f, -4.308281839e-02f, 1.188007556e-02f, -9.032707661e-03f, -4.827518761e-02f, 1.273504198e-01f,
  -7.567752153e-03f, -4.093557969e-02f, 2.220902778e-02f, 1.983536035e-02f, -3.243096173e-03f, 3.036210872e-02f, -9.164005518e-03f, 9.793531150e-03f,
  -6.777305901e-02f, 8.929893374e-04f, -1.482643187e-03f, -1.554083079e-03f, -1.872815564e-02f, 2.447082102e-02f, 6.657796353e-02f, -8.427521586e-02f,
  1.317059845e-01f, 2.810211778e-01f, -6.338926405e-02f, 1.280142069e-01f, 1.808195710e-01f, -3.695343807e-02f, 1.226772070e-01f, -9.065842628e-02f,
  1.759469509e-03f, 5.324574187e-02f, 2.739324570e-01f, -5.049863458e-02f, 9.232158959e-02f, -3.893175721e-02f, -3.188331425e-02f, 7.102182508e-02f,
  2.122376487e-02f, 9.500093758e-03f, 4.503004253e-02f, 1.148171127e-01f, 3.107319027e-02f, 4.599926993e-02f, 1.746261418e-01f, 3.200233728e-02f,
  -1.223574281e-01f, -1.836933009e-02f, -3.518114239e-02f, -2.599120140e-01f, 2.009806931e-01f, -9.408152848e-02f, -7.229975611e-02f, 2.002013028e-01f,
  6.527882069e-02f, 3.243067861e-02f, -7.998425514e-02f, 8.149184287e-03f, 3.487443030e-01f, 6.874775887e-02f, -7.320951670e-02f, 2.616440058e-01f,
  9.117239714e-02f, -6.189320236e-03f, -1.364443153e-01f, 7.633771002e-02f, 7.441239059e-02f, -1.419093013e-01f, 6.562242508e-01f, 1.507517546e-01f,
  -1.850216687e-01f, 2.059834152e-01f, 1.255537570e-01f, 1.340517960e-02f, -9.137122892e-03f, 9.048283100e-03f, -3.784120083e-03f, -4.446735978e-02f,
  1.429658011e-02f, -9.504795074e-03f, -2.193699405e-02f, 9.735897183e-03f, -1.232425682e-03f, 3.070512414e-02f, 9.949469939e-03f, -1.585215330e-02f,
  -3.968652338e-03f, 5.663823709e-02f, -2.307856455e-03f, -8.527529985e-02f, 1.521191932e-02f, 9.183639660e-03f, -3.733222187e-02f, 3.859015647e-03f,
  -3.100730106e-02f, -1.479100287e-01f, -4.349390790e-02f, -3.547354043e-02f, -1.237246394e-02f, -9.524453431e-02f, 2.583717927e-02f, 8.761736564e-03f,
  2.475098521e-02f, -5.455112085e-03f, 2.124264836e-03f, -2.138788253e-02f, 1.745183021e-02f, 7.758583874e-03f, 5.651914049e-03f, 1.072957739e-02f,
  -1.445486024e-02f, 2.057286911e-02f, -1.180111151e-02f, -1.299118996e-02f, -1.038069427e-01f, -1.987803541e-02f, 1.577130705e-02f, -7.025692612e-04f,
  1.196880080e-02f, 1.812021807e-02f, 5.373454653e-03f, 2.914414927e-02f, -8.500272781e-02f, -5.086765438e-02f, 7.973758504e-03f, -9.542903863e-04f,
  -8.607836440e-03f, -4.690587521e-02f, -1.308547612e-02f, -4.163718224e-02f, 3.458993137e-02f, 4.205279946e-01f, 1.538258791e-01f, 7.211925834e-02f,
  2.101223469e-01f, 1.665396690e-01f, 2.120245621e-02f, -4.428277910e-02f, -4.110274091e-02f, -3.528846055e-02f, -1.059727311e+00f, -1.397672892e-01f,
  1.931366324e-02f, -3.261901438e-02f, -7.174256444e-02f, -1.645237580e-02f, 1.475572214e-02f, 8.101949468e-03f, -1.668894291e-02f, -2.117315680e-02f,
  6.441302598e-03f, 2.510104142e-02f, 6.266444176e-02f, 2.960915118e-02f, 2.264511213e-02f, 6.149684638e-02f, 2.885407954e-02f, -4.814403504e-02f,
  -2.294707112e-02f, -5.016598850e-02f, -1.135881338e-02f, 7.692846656e-02f, 2.022937499e-02f, 2.099262550e-02f, 5.302788317e-02f, 1.662074961e-02f,
  1.270227581e-01f, -7.269576192e-02f, 1.775602996e-02f, 5.889677629e-02f, 2.213164605e-02f, 1.885402948e-02f, -6.895744801e-02f, -7.052633911e-03f,
  -1.949767768e-02f, -1.823703796e-01f, -1.182365894e+00f, -2.465049028e-01f, -1.269067079e-01f, -1.308270097e-01f, -6.108210236e-02f, -9.907605127e-04f,
  8.897218853e-03f, 6.404750049e-03f, -5.195423961e-03f, 2.509295940e-03f, 2.390689403e-02f, -3.002767684e-03f, -1.070542540e-02f, 1.043736935e-03f,
  2.253178120e+00f, 2.741913795e+00f, 1.610489964e+00f, 1.748018146e+00f, -4.224783897e+00f, -2.877764776e-02f, 8.232485771e+00f, 1.167582703e+01f,
  -1.066909599e+01f, -1.197420597e+01f, 6.305045605e+00f, -1.544633198e+01f, -5.915795919e-03f, 4.976458731e-04f, 3.172376892e-03f, -6.528922822e-03f,
  4.859559704e-03f, 3.063772991e-02f, 3.555300459e-02f, -8.833820932e-03f, -1.603796147e-02f, 4.255834967e-03f, 2.626790479e-02f, 3.840994788e-03f,
  1.857252419e-01f, 9.512274712e-02f, 1.064511463e-01f, 2.187443227e-01f, 2.166529559e-02f, 6.713747978e-02f, -3.800688684e-02f, 4.460423812e-02f,
  -2.054542117e-02f, 4.408748355e-03f, -6.862828881e-02f, 7.305780798e-02f, -4.692267999e-02f, -5.454052240e-02f, -9.928032756e-03f, 5.977717787e-02f,
  -3.149469942e-02f, -1.624044962e-02f, 8.831508458e-02f, -1.483185589e-01f, -4.400308710e-03f, 2.927196398e-02f, 9.856300056e-02f, 3.436515108e-02f,
  3.050074156e-04f, -8.724743500e-03f, 1.177326869e-02f, 3.178842133e-03f, 5.278006429e-04f, -3.021508455e-03f, -3.653443977e-02f, -1.008249354e-02f,
  -6.067074463e-02f, -1.377200522e-02f, -1.188166719e-02f, -1.556413155e-02f, -8.021235466e-03f, 2.017234219e-03f, -4.497647285e-03f, -1.302332338e-02f,
  -5.896392744e-03f, 5.051857978e-02f, 3.128684312e-02f, -1.775270700e-02f, 1.680766605e-02f, 2.134601958e-02f, 5.197070539e-03f, 3.241846105e-03f,
  -3.384891897e-02f, -1.678026468e-01f, -1.318834629e-02f, 1.400242466e-02f, -1.040225402e-01f, -9.752389789e-02f, 1.344720572e-01f, -1.353501529e-01f,
  3.346125782e-02f, 5.694555119e-02f, 1.668264121e-01f, -3.386412561e-02f, 3.941207193e-03f, -9.503071196e-03f, -2.429762157e-03f, 3.262786660e-03f,
  -4.922366701e-03f, -1.674238220e-02f, -4.217497259e-02f, 2.741428034e-04f, -1.034072414e-01f, -2.203887887e-02f, -2.365905605e-02f, -1.874988317e-03f,
  -3.442821791e-03f, -1.496086176e-02f, 3.712414997e-03f, 8.017659420e-04f, -4.477830604e-03f, -7.542021922e-04f, 1.447951072e-03f, -2.883027866e-02f,
  -1.030478477e-01f, -6.042193854e-04f, 1.119558141e-02f, 1.087497338e-03f, 2.736724913e-03f, 8.532394655e-03f, -7.290443871e-03f, 4.424916580e-03f,
  1.315971487e-03f, 3.374301270e-02f, -1.345293690e-02f, 7.422021125e-03f, 2.484343387e-02f, 1.799857989e-02f, 5.801341031e-03f, -2.643668093e-03f,
  -1.191645637e-01f, 4.292142019e-02f, 1.214586478e-02f, 2.228629962e-02f, 4.034085665e-03f, 4.121761397e-02f, -1.370840371e-01f, 9.418641217e-03f,
  -1.651045308e-02f, 2.078994922e-02f, -9.259365499e-02f, -6.436963566e-03f, -1.804763451e-02f, -1.875997894e-02f, 2.135877497e-03f, 2.018156461e-02f,
  6.524228957e-03f, -3.657712135e-03f, 6.098847464e-02f, 4.870679229e-03f, 1.841306686e-02f, 2.056693844e-02f, -4.926948342e-03f, 1.586766884e-04f,
  5.694847554e-03f, -1.624005102e-02f, -7.513128367e-05f, 3.744462505e-03f, 1.191276242e-03f, -9.605476633e-03f, -6.402214617e-02f, -2.211473882e-03f,
  8.957800455e-03f, -1.914411085e-03f, 4.992781207e-02f, 6.635226600e-05f, 1.748555899e-01f, 3.414256573e-01f, -8.506433666e-02f, -2.062886506e-01f,
